784 100
0.097627 0.185689 0.430379 0.688532 0.205527 0.715891 0.0897664 0.694503 -0.15269 0.247127 0.291788 -0.231237 -0.125442 -0.406246 0.783583 -0.886572 0.927325 -0.454687 -0.233117 -0.0446697 0.58345 0.624337 0.0577898 -0.0400457 0.136089 -0.21443 0.851193 0.672158 -0.857928 -0.325208 -0.825741 0.296344 -0.959563 -0.263539 0.661654 0.907493 0.553822 -0.726026 0.71448 0.711646 0.923899 -0.073472 0.542161 0.477368 -0.0979507 0.0352069 0.549232 0.336949 -0.775549 0.43619 0.276794 0.163967 -0.713293 0.0747465 0.889338 0.517231 0.0436966 -0.788185 -0.170676 -0.0512129 -0.470322 -0.630041 0.527984 0.446963 -0.140799 -0.635147 0.138019 -0.709675 -0.989273 -0.556905 0.00908195 -1.05875 -0.134457 -0.773207 0.121271 -0.339576 0.804858 0.74059 0.300124 -0.142595 -0.295835 0.226628 -0.125936 0.804697 0.395262 -0.801439 -0.884394 0.941947 0.334087 0.279502 0.283801 -0.744743 -0.575648 -0.309175 -0.803755 0.298068 -0.477908 0.187662 -0.22253 -0.638012 -0.196636 -0.950021 -0.0934384 0.231169 0.900074 0.752938 -0.889378 0.210196 -0.618867 0.269143 -0.677131 0.990599 0.306217 0.163701 -0.509966 -0.177159 -0.0681745 -0.0985037 -0.512648 0.291688 -0.677557 -0.165265 -0.592336 0.348274 0.285282 -0.360335 -0.622325 0.161391 -0.730531 1.1324 0.0430081 0.439629 0.671334 -0.92588 -0.689629 0.354008 0.729303 0.366823 -0.803101 0.943948 0.952919 0.756387 -0.0653311 0.00793859 0.925796 -0.833076 0.223704 0.0745363 0.733657 -0.575974 -0.591306 0.0632727 -0.491223 1.05463 -0.857813 -0.461983 -0.269029 0.553895 0.0945361 0.811796 -0.165305 0.863586 0.0148797 0.96309 -0.839336 -0.529578 0.388089 0.130407 0.133203 0.730205 -0.470619 0.0105192 0.00332757 0.931678 -0.634376 1.12552 0.469451 -0.61273 1.10006 -0.49891 -0.0801728 -0.687459 0.244237 0.234773 -0.761262 0.74704 0.892763 1.26391 0.0583815 -0.0919468 -0.453477 -0.053271 0.236905 0.164127 -0.945526 -0.667768 0.65788 -0.260172 -0.996348 -0.691073 0.356045 0.269824 -0.166654 0.581787 0.721543 -0.380342 0.813364 -0.285418 -0.405826 0.160244 -0.69018 -1.01935 -0.257597 1.00415 0.665255 0.712587 -0.132493 1.09684 0.8412 0.293375 -0.139396 -0.11802 0.701646 0.957426 0.397396 -0.766763 -0.40598 0.582279 0.616513 -0.114766 -0.080716 0.274953 0.756573 -0.493288 0.200455 -0.162077 0.596661 0.072174 -0.643914 -0.526356 0.440608 0.501985 0.296146 0.259792 1.00622 -0.349098 0.248701 -0.513019 -0.208511 0.235473 0.246403 -0.048591 -0.961564 -0.0574885 -0.390435 0.521614 0.266571 -0.474269 -0.380287 -0.176139 0.351003 0.905705 0.0846385 0.792883 -0.644546 -0.871738 -0.617328 -0.648466 0.438181 -0.159064 0.264881 0.150582 0.0831665 -0.956048 0.349398 0.626146 0.364358 -0.146844 -0.0509368 -0.550865 0.793131 -0.715938 -0.254483 -0.788625 -0.199287 1.001 1.12363 -0.189653 0.828539 0.569042 0.321739 -0.541934 -1.15576 -0.811893 1.16125 0.398044 0.766259 -0.0518342 1.1161 0.947474 -0.685211 0.703182 0.542756 -1.24562 -0.725362 0.245029 0.305588 -0.660498 -0.752369 0.557779 0.703317 0.672726 0.545898 -0.229772 0.518192 -0.576663 -0.0257344 -0.763136 -0.663249 0.530284 0.26052 -0.16985 0.542861 0.530453 0.465228 -0.928337 0.75706 -0.12146 0.839381 -1.2421 0.286196 -0.828406 -1.02326 0.718173 -0.226614 0.888373 0.459978 0.499075 -0.652501 -0.322182 0.0595008 -0.0237382 -0.901626 -0.396069 -0.738832 -0.733959 -0.59248 -0.951936 0.169766 0.177995 0.224167 1.10337 -0.501184 0.820904 0.957715 0.291464 0.405099 -0.0481061 -1.4511 0.0791673 -0.97094 0.00660199 0.268957 -0.900016 0.154397 0.398717 -0.520729 1.01408 0.909913 -0.524762 -0.0422774 0.16766 0.00778209 0.494056 0.570042 0.36287 0.0175982 1.32572 0.0966275 0.0779341 -0.0816948 -0.471487 -0.396273 -0.0903032 -0.260032 -0.556164 0.434896 -0.579116 0.109048 -0.143027 0.0141114 0.946051 -0.547742 0.361613 -0.490536 -0.801313 -0.931533 -1.10539 -0.31652 -0.313065 -0.828982 0.285112 0.276951 0.873451 -0.275538 0.527679 -0.588899 0.131954 -0.72749 0.736775 -0.42292 0.837972 0.702955 -0.0576849 -0.514458 -0.162363 -0.143798 0.15422 0.858643 0.429645 0.97983 -0.0609098 -0.572699 -0.0919019 0.246203 0.614507 -0.53858 -1.03524 -1.10089 -0.520195 0.516524 0.486951 -0.369818 1.25189 -0.3273 0.255363 0.107513 -0.399598 1.00537 0.331328 0.447021 -1.05681 0.412278 -0.579287 -0.346248 -0.046939 0.739962 0.777727 -0.628762 0.359805 0.905796 -0.0586072 0.277932 -0.316269 -0.824436 0.210329 0.827648 -0.306233 0.668903 0.686026 0.0710508 0.396575 -0.759513 0.873544 -0.14089 0.232446 -0.301652 0.733438 -0.290036 -0.473308 -0.215821 0.534155 -0.0547368 0.460153 0.0262132 -0.550316 -0.444743 -0.627064 0.173527 0.707807 0.631462 0.318016 -0.949769 -0.0664919 -0.0250245 0.0218013 -0.346786 -0.50862 0.774141 0.575981 -0.666517 -0.177533 0.0514324 0.926245 0.128248 0.129656 -0.31068 -0.456627 -0.106028 -0.715331 -0.307415 0.497638 0.928363 -0.930396 0.530655 0.49397 0.499487 -0.67873 0.854556 -0.496575 -0.896417 0.103703 -0.0556365 0.880095 0.563201 -0.800645 0.849146 -0.569496 -0.741257 -0.713821 -0.476447 0.473218 -0.71877 -0.367344 -1.15005 -0.320101 0.772282 -0.974597 0.483579 0.645362 0.588909 0.982684 -0.43654 0.406947 0.208899 -0.437191 -0.660835 0.0805525 -0.0995629 -0.224671 0.474752 0.334181 0.661249 -0.0258489 -0.731719 -0.643547 0.486498 -0.164353 -0.384827 0.786661 0.710959 0.0769278 0.765534 0.059591 0.52092 -0.0904996 0.215571 0.329307 0.756739 -0.0030626 -0.413959 0.689225 0.727846 -0.413978 0.548611 0.725508 -1.04666 0.630429 -0.522168 0.367991 -0.65987 0.547406 -0.00889417 -0.2125 -1.38423 0.0275882 -0.34604 -1.11427 -0.208145 -0.688901 -0.407691 -0.365046 -0.571151 -0.0835708 0.584587 -0.446951 -0.617603 -0.197736 0.022638 -0.758124 -0.548056 1.04241 -0.559241 0.0711518 0.69625 -0.0225917 0.532208 -0.510393 0.879718 0.73965 0.441258 -0.932576 -0.15466 -0.786125 -0.403253 -0.270781 -1.34787 -0.555326 -0.382571 0.294555 -0.306997 0.991695 -0.612631 -0.289975 -0.891272 0.905741 0.451189 -0.972083 -0.975068 0.100336 0.65599 -0.171277 -0.668375 0.594233 -1.00913 -0.250001 -0.505525 0.667179 0.616896 0.653794 -0.323464 -0.221037 -0.129475 0.249353 -0.00641114 0.556244 0.460794 -0.363594 0.579061 -0.662649 -0.337084 -0.424631 -0.739708 0.18387 -0.889251 -0.0470456 -0.396683 -0.00993773 -0.390384 0.027885 -0.0518322 0.0423779 0.444722 -0.0389793 0.681983 0.924733 -0.281405 0.0100276 -0.120438 0.470592 -0.852039 -0.271618 0.593952 -0.657754 -0.856759 0.418768 0.533926 -0.480083 0.622658 0.751443 0.552866 0.362718 -0.481155 -0.643265 -0.252492 -0.860861 0.191591 -0.935361 -0.458622 0.711401 -0.300256 -0.765316 -0.683288 0.350282 -0.0236218 1.06233 -0.634188 0.502462 0.750501 0.0847843 -0.719569 -0.0275819 0.155791 0.935673 -0.282119 0.0400798 0.225977 -0.109912 0.918818 -0.651776 0.29114 -0.0494211 -0.929262 0.567295 -0.147391 0.0987204 -0.0615781 -0.825423 -0.0708598 -0.810157 0.304334 0.340175 -0.17117 0.243639 -0.391324 0.104219 0.326963 -0.414578 1.01818 -0.57194 -0.606227 -0.773938 0.796785 0.15318 0.0839916 -0.815479 -0.0861761 0.821089 0.764083 -0.834056 -0.0827921 0.600769 0.448434 0.752133 -0.24239 -0.867588 0.757324 -0.206156 0.380359 0.00203252 0.505856 0.238971 -0.109263 0.609445 0.66359 -0.792769 0.324888 0.447525 -0.561524 0.500993 -0.69098 -0.984987 0.592777 -0.383428 0.918333 -0.534269 -0.0837224 0.00685489 0.181968 0.907443 0.71545 0.11523 -0.0860667 -0.806442 0.901572 0.244359 0.152936 0.730472 0.652069 -0.684982 0.830326 0.990682 0.646215 -0.800083 -0.658635 -0.811471 0.252828 0.261042 -0.20574 0.898612 -0.874574 0.873493 -0.151936 -0.105243 4.18751
-0.482632 0.455393 0.698077 0.484476 -0.933391 -0.386028 0.917965 -0.760457 -0.289262 -0.112243 -0.286586 -0.216451 -0.970961 0.055662 -0.629661 0.69071 -0.197481 0.0725491 0.858583 0.36054 -0.80077 0.218355 0.890603 -0.803044 0.738977 -0.815945 -0.0916752 -0.888068 -0.346598 -0.826935 -0.534512 -0.525653 0.228929 0.679018 -0.938065 0.0355364 -0.972371 0.0225838 -0.156273 0.279904 -0.910633 0.0678209 -0.501341 -0.934537 -0.557799 0.145603 -0.504707 0.524772 -0.749766 -0.264076 -0.990823 -0.01912 -0.769031 0.963279 0.236961 -0.510697 0.948512 -0.251354 0.980681 -0.910023 -0.182533 -0.379902 -0.679642 0.637343 0.251244 0.586325 -0.0371948 0.270319 1.00842 -0.251977 -0.951988 -0.412741 0.535762 0.582013 -0.435641 -0.893037 -0.548304 0.327182 0.276529 -0.264351 -0.517372 0.266919 0.331718 0.853758 0.0346171 0.70788 -0.151842 -0.00866666 0.109172 -0.144059 -0.442175 0.59787 0.342836 0.420766 -0.140228 -0.0897876 -0.293593 0.875421 0.590402 -0.32793 0.838857 -0.0731774 -0.780986 0.508048 -0.606583 -0.161232 -0.38586 0.818745 0.610502 -0.488856 0.970973 -0.23648 0.937943 0.394283 0.809901 0.792358 -0.408128 -0.758705 0.952057 -0.57244 -0.525385 -0.481779 -0.627923 0.135998 1.00655 0.871733 -0.381356 -0.0718042 0.647783 0.0120739 -0.753534 0.885035 0.376369 -0.849359 0.64676 0.156443 -0.472912 -0.73297 -0.240651 -0.251537 -0.251408 -0.35119 0.497568 0.354847 -0.532992 0.602548 -0.68269 0.0318932 0.0710702 -0.127713 -0.072217 0.674944 0.39736 -0.584158 -0.565414 0.368916 -0.0764717 0.246873 1.06177 -0.412402 0.294382 0.0853455 0.729173 0.0414466 0.89183 -0.279309 0.503026 -0.950267 0.39915 -0.702341 0.936181 -0.730994 1.00177 0.448449 -0.0799379 0.40893 -0.666074 0.51689 -0.31049 -0.0259846 -0.912162 -0.103306 -0.260928 0.0931342 -1.1889 -0.474177 0.319716 -0.456283 -0.0920202 0.911514 0.666288 -0.790307 0.958027 -0.953597 0.0951198 0.96123 -0.450353 -0.702853 0.183633 -0.468002 0.827808 -0.541362 -0.123837 0.166622 0.176603 1.06961 -0.479371 -0.580789 -0.10646 0.64223 -0.433487 -1.07252 -0.422426 0.398017 -0.3123 0.561501 -0.301645 -0.269098 -0.185918 0.813824 -0.0259935 -1.01055 0.491344 0.251448 -0.332855 -0.335544 0.841374 1.01476 0.869408 -0.475886 -0.80712 0.858559 -0.508296 -0.158544 -0.190865 0.493153 -0.919579 -0.121971 -0.607681 -0.461317 0.446769 -0.339859 0.118047 -0.0439365 0.640368 1.02434 0.625547 0.82287 -0.705965 0.326402 -0.331394 0.277995 0.352838 0.106417 0.819291 -0.285466 0.303489 -0.48731 -0.446443 0.506409 -0.853512 0.216878 0.0931753 -0.409333 -0.827835 -0.537529 -0.98247 -1.41864 0.0637345 0.331597 1.04367 -0.277174 -0.624289 0.177051 -0.0159161 -0.895213 -1.17307 -0.163778 -0.328999 0.80869 0.244872 -0.972628 -0.39514 1.05366 -0.432949 0.420589 -1.05992 -0.882132 0.142608 -0.54142 0.438557 0.571414 0.480797 -0.0580373 0.060165 -0.588604 -0.984084 -0.311747 0.83856 0.248147 0.428245 1.06254 0.234518 0.266587 0.713854 0.823756 -0.978978 0.334704 0.393045 -0.111156 0.647716 0.450262 0.00461898 0.212968 -0.65392 -1.06215 0.175719 0.316532 -0.800994 0.213352 -0.0495116 0.641486 -0.373257 -0.878085 -0.0193998 0.615694 -0.462711 0.215136 -0.509212 0.641973 -0.247029 -0.263056 0.0608423 0.765665 0.786663 0.760367 0.237727 -0.338067 -0.715895 -0.169877 0.814899 -0.0650438 0.355012 0.0968941 -0.0170046 -0.587526 0.523579 0.0691347 0.192909 -0.716348 0.387551 -0.528218 0.608732 -0.106878 0.925564 -1.00735 0.630457 -0.970404 -0.922793 -1.06354 -0.775716 -0.365573 -0.19846 -0.502278 0.904286 0.125768 -0.380317 0.773765 -0.74471 0.189349 0.454113 0.0658483 0.121367 -0.668127 0.445149 0.469723 -0.410673 -0.789641 -0.218587 -0.856171 -0.164846 0.3198 -0.883707 -0.700674 -0.0831916 0.596855 -0.660134 0.499572 -0.91413 -0.0832301 -0.822337 0.0545182 -0.877787 -0.051041 0.8312 -0.624089 0.58077 0.0163499 0.625834 -0.522287 0.522157 0.615044 0.175 0.213762 -0.374605 -0.686287 0.620934 -1.13223 -0.331461 0.23926 -0.410497 -0.191445 -0.877362 -1.28287 0.763784 0.942971 -0.546091 0.364888 -0.31238 -0.411702 0.360716 -0.60004 -0.841178 1.02352 0.403794 -0.138352 -0.079516 -0.257075 -0.290634 0.525577 -0.510792 0.463361 -0.445118 -0.681881 -0.748213 0.496928 -0.289911 0.150009 -0.412422 -0.132427 0.684575 0.192418 -0.65488 -0.232025 -0.720243 0.392873 -0.251683 0.31203 0.182054 0.643074 0.356789 0.0177214 -0.00508374 -0.802034 1.0318 0.894283 -0.235449 0.0880902 0.132847 0.149766 -0.11793 -0.087039 0.429265 -0.423233 0.719494 0.446447 1.14982 1.06472 0.474494 -0.223631 0.718504 -0.297953 -0.146499 -0.695546 -0.628297 0.549672 -0.874728 -0.957229 -0.459574 -0.542712 0.0685192 -0.396847 0.109221 0.59089 0.740343 -0.225526 0.833259 -0.719638 -1.31228 -0.680744 -0.495884 0.556098 0.437974 1.36448 1.14364 0.789357 0.875188 -0.352895 1.27311 0.489586 1.18279 0.918286 -0.185915 0.558665 -0.233556 -0.577632 -0.687901 0.694166 0.594934 -0.495154 0.115909 0.601574 0.974911 -0.547751 -0.655012 -1.16248 -0.476507 0.0798348 0.568396 0.0159238 -0.0561596 -0.185156 -0.00314316 0.695504 0.651045 1.08096 -0.507115 -0.131333 0.13332 -0.0039273 -0.76336 -0.0408171 -0.0858825 0.0177867 0.961502 0.997119 -0.103232 -0.785927 0.602848 -1.14717 -0.840936 -0.045598 -0.675109 -0.65999 -0.824791 -0.609332 0.132309 -0.629781 0.578562 -0.356378 -0.0682517 0.275144 0.315911 -0.121563 0.444717 -0.15113 -0.121404 -0.96409 -0.122801 -0.250481 0.229055 0.322443 -0.851899 0.301642 0.613853 0.774827 0.310411 0.310747 0.289096 -0.704298 -0.408005 -0.97671 -1.3581 0.45293 0.0612189 0.332141 -0.248346 -0.255356 -0.307277 0.0762571 -0.990014 0.180488 0.543431 -0.173219 -0.746903 0.042018 0.213911 -0.829536 0.406435 0.33472 0.277625 -0.902865 0.854772 0.742758 -0.760256 0.425912 0.732252 0.423208 -1.33205 -1.37157 -0.174974 0.971209 -0.303827 0.35135 0.0731446 0.589891 -0.301176 0.833109 -0.694705 -0.259093 -1.05464 0.707763 0.0197801 0.529439 0.685277 0.441055 -0.253568 0.266829 -0.556324 -0.353115 -0.791514 0.103635 -0.799666 -0.30141 -0.507284 -1.13403 -0.906928 -1.09618 -0.563632 -0.496066 -1.15906 -0.333863 -0.701539 -0.370627 0.587903 -0.294828 -0.736276 -0.952734 -0.014541 0.798199 0.568036 0.784048 -0.087381 0.794554 -0.693262 -0.335618 -0.602085 0.428685 -0.0954689 -0.101258 0.0515033 -0.415826 -0.395965 -0.96647 0.297167 -0.483302 0.450374 0.0966882 0.683407 -0.653411 -0.662305 -0.182534 0.657001 -0.931422 -0.373988 0.655267 0.683927 0.307847 0.396058 -0.613702 0.974806 0.836184 0.518565 0.159362 -0.272247 -0.0901721 0.012444 0.316534 -0.218149 -0.42642 -0.230223 -0.0738496 -0.83967 -0.891982 -0.00339284 -0.367051 0.326673 0.125884 -0.0693981 -0.555334 -0.0941136 0.520924 -1.02356 -0.260045 -0.684087 -0.564437 -0.902283 0.17133 0.941679 0.493673 -0.992279 0.217977 -0.643231 0.157952 0.252563 -0.657743 -0.846835 0.40413 0.754009 0.742308 0.154815 0.0973326 1.00396 -0.184584 0.0810172 0.652521 -0.112602 0.816305 0.00886701 -0.39691 0.616947 -0.255256 0.0533834 0.871659 -0.464456 0.444557 0.755027 -0.934197 -0.256163 -0.148108 -0.997233 -0.812211 -0.505961 0.927577 -0.390083 0.158371 0.695333 0.170534 -0.260366 -0.366996 -0.239013 0.251523 -0.445106 0.00529802 0.501382 0.273423 0.633279 0.731508 0.920975 -0.237677 -0.214229 0.791615 0.931553 -0.869835 0.583759 0.370955 0.351378 -0.53786 -0.510221 0.077737 -0.567086 0.547437 -0.667011 0.490433 0.841436 0.439195 -0.474178 -0.0811325 -0.0954919 -0.570941 -0.0295656 -0.686769 0.49506 0.032313 0.656523 -0.111564 -0.700794 0.969075 -0.118869 -0.392579 0.68571 -0.84206 0.636067 0.453756 2.16847
-0.795173 0.950848 -0.687233 0.564179 -0.391603 -0.50591 -0.849282 -0.926878 -0.150674 -0.186156 -0.784765 0.755502 0.135815 -0.137373 -0.506889 -0.431828 0.192866 0.870604 -0.764949 0.544531 0.951768 0.221973 0.865122 -0.994646 -0.216406 0.86301 -0.515643 0.347675 -0.499204 -0.551066 -0.0332129 -0.950494 -0.920014 -0.985063 0.272346 0.843053 -0.186432 0.382373 -0.259135 0.398794 0.611528 0.186775 0.413462 0.0691434 0.898742 -0.0934627 -0.296142 0.199727 0.794642 0.308169 0.539939 -0.253946 -0.285151 0.336468 0.243331 -0.0862307 -0.42286 -0.829866 0.748806 -0.539271 -0.777076 -0.837174 -0.579073 -0.380685 -0.647448 0.198667 -0.240049 -0.328588 0.445462 0.424619 0.0477776 0.333038 -0.0748462 -0.714797 -0.979111 -0.622851 -0.124524 -0.864437 -0.865622 -0.467979 -0.583523 -0.304917 0.864788 -0.823503 -0.569204 0.204458 0.716686 0.411178 0.600176 -0.68221 -0.683294 -0.345039 0.178434 0.384221 -0.87267 0.254337 0.253375 0.351285 -0.00331874 -0.162973 0.378628 -1.02197 0.0907125 -0.747238 0.896189 -0.702767 -0.827294 0.0826601 -0.407052 0.504699 0.417215 -0.935453 -0.163782 -0.0866246 -0.654004 0.649254 -0.78316 0.341026 0.681821 0.20251 0.11715 0.400246 0.842623 0.695361 0.259751 -0.174129 -0.378573 -0.194375 -0.0644465 0.708377 0.296103 -0.149159 0.745471 0.958546 0.515043 0.750567 -0.937921 -0.685712 0.392865 0.369298 0.839015 -0.931858 0.42082 0.766072 -0.629079 0.758704 0.116241 0.239705 -0.504948 -0.569002 -0.244756 0.367367 1.07107 -0.571314 0.697905 -0.0256537 -0.561334 0.217154 -0.540398 -1.03359 0.0273024 -0.316033 0.872519 0.236129 -0.622397 -0.405022 -0.482328 -0.595916 0.747114 0.275679 -0.012612 0.494666 0.774814 -0.278814 -0.606799 0.527639 0.259813 0.282268 -0.306515 0.841399 -0.00810495 -0.231505 -0.169055 0.290102 -0.252728 -0.167454 -0.0899176 -0.379126 0.766602 0.71005 0.494879 -0.665115 0.630592 -0.502191 -0.413604 0.0422108 0.155414 -0.249757 0.54954 -0.548375 0.52329 0.272685 -0.437354 0.33929 0.652689 0.926593 0.379209 0.538225 -0.574023 1.48217 0.882584 -0.189132 -0.0437925 -0.703883 0.139444 -0.329792 -0.0792586 -0.252506 0.261091 -0.271318 0.412927 -0.735652 0.0474971 -0.0953131 0.726287 0.863352 0.246744 0.483118 -0.260196 -0.458138 -0.264472 0.847495 0.616283 0.251904 -0.461257 0.188166 -0.510804 -0.166794 -0.484184 0.466686 0.698662 -0.480834 0.993407 0.725005 -0.747548 1.13885 0.10628 0.425026 -0.612347 0.526485 -0.731698 -0.670611 0.799704 0.494166 -0.889906 -0.0396222 0.889949 -0.818817 -0.719696 -0.179452 0.602647 0.14952 -0.136058 0.12082 -0.60891 -0.316372 -0.108265 0.834432 0.110319 0.234015 -0.480918 1.07697 0.604252 0.510869 0.248904 0.099952 -0.092781 -0.928726 0.835786 -0.804831 0.109259 0.227566 0.658259 0.45791 0.488672 -0.42986 -0.870602 0.964124 0.474434 0.159531 -0.633429 -0.676022 0.367463 0.25175 -0.993645 -0.780982 -0.728135 0.288797 -0.822394 0.153128 -0.126531 0.56791 0.620886 -0.595563 -0.476433 0.846951 -0.693033 1.00547 -0.339478 -0.680946 0.621888 0.0898662 -0.571046 0.825452 -0.394927 -0.0824942 -0.428282 -0.097044 0.66264 0.552379 0.0396837 1.00023 -0.375391 -0.229704 0.0838109 -0.32141 -0.337945 -0.138044 0.265714 0.266272 0.540042 0.389953 -0.504318 -0.303028 1.00282 0.962002 -0.675307 0.782527 -0.421333 0.462527 -0.447586 0.21325 0.00372209 -0.251147 0.326257 0.82086 0.490151 1.04014 0.992672 0.172078 0.828708 0.383272 -0.255756 -0.587433 0.508085 0.72823 -0.990659 -0.113744 0.0289692 0.936449 -0.198274 -0.630809 -0.330714 0.923261 -0.0348757 -0.0200741 0.455473 -0.801095 -0.745618 -0.285069 1.1039 1.13424 0.725984 0.0830198 -0.224178 1.25333 0.935707 -0.568616 -0.00846691 0.363923 1.59034 0.754744 -0.0595374 0.163354 0.162656 -0.556894 -0.4599 0.67616 -0.469563 0.615221 0.182684 0.0161475 0.84187 -0.979969 0.603901 -0.701144 0.462438 0.419591 0.269767 0.159397 0.758237 0.501406 -0.0324701 -0.322897 0.161896 -0.362793 0.464684 0.307223 -0.11329 0.475694 1.0878 0.229779 -0.818156 -0.916694 -0.471997 -0.995038 -0.755408 0.623327 -0.0233702 0.389002 0.47319 -0.539094 -0.803565 -0.750943 0.0035947 -1.05337 0.847547 -0.32753 -0.833612 0.0122786 0.187446 0.725632 0.0971717 0.722107 -0.683299 0.0643674 -0.145187 1.09217 0.780679 0.346423 -0.80052 -0.0727905 0.795103 -0.699449 -0.188409 -0.920129 -0.963736 -0.514024 -0.551189 -0.751125 0.94386 -0.529396 0.102522 -0.132602 -1.00404 0.439388 -0.882955 0.116221 0.03829 -1.04119 -0.943522 0.473695 0.0583702 -1.11925 -0.363441 1.12403 -0.091223 0.627231 0.197385 -0.525118 0.382757 -0.146691 -0.735888 0.319463 0.196436 0.675763 0.279245 -0.540214 0.9417 -0.706196 0.477374 0.678601 0.468842 0.221057 -0.329566 0.629985 -0.673217 -0.775353 0.808338 -0.304222 -0.478006 -0.788126 -0.501553 -0.253975 -0.472651 -0.57295 1.04571 0.297135 0.637067 -0.708479 0.274713 -0.240122 -0.32399 -0.424466 -0.491215 0.843065 -0.447982 -0.138782 -0.727557 0.784545 0.0643742 -1.08739 -0.881973 -0.0394774 -0.621964 -0.12923 0.130059 -0.0829235 0.505307 -0.67241 -1.46867 -0.571108 0.0125912 -0.244808 0.524398 -0.265014 0.378297 -0.544443 -0.269409 -0.456494 0.92702 -0.869823 -0.468735 -0.972175 -0.957009 0.823092 0.107056 0.0621422 -0.452539 0.193609 0.234979 -0.392109 -0.558604 -0.497214 -0.501546 0.512635 0.62656 -0.612383 0.0413507 -0.122882 0.311566 -0.470739 0.430325 -0.655623 -0.234125 0.393 -1.10007 -0.00804911 -0.983462 0.100633 0.0224435 0.664437 -0.820799 -0.903615 -0.892824 0.752692 0.703503 -0.00560093 0.414172 0.0415315 -0.73804 -0.946512 -1.15124 0.422064 0.970178 -0.760448 -0.749941 -0.77818 -0.626512 0.788057 0.380703 -0.752101 -0.739799 -0.203868 -0.547324 0.482591 0.942488 0.125719 0.278925 0.461028 0.0610509 -0.621933 -0.164714 -0.266568 0.286497 -0.165972 -0.869613 -0.658569 0.828163 0.842364 0.437416 -0.173535 0.0237807 0.389967 -1.31088 -0.530469 0.111214 0.572653 0.651159 -0.496855 0.0377504 -0.832487 -0.419172 0.500765 -0.773624 0.94603 0.509802 -0.875927 0.781972 -0.803689 -0.790182 -0.38562 0.431245 0.142073 -1.08261 0.146034 0.66547 0.455848 -0.187943 -1.09149 -0.152301 -0.428986 -0.714366 -0.975511 0.509017 0.362867 -0.59037 -0.703276 0.568816 0.618096 0.869696 0.497061 0.566348 0.767632 0.0379798 0.938336 -0.865447 0.165426 -0.0593044 -0.0747726 0.0118157 0.334011 -0.264436 0.905089 -0.0491663 -0.351719 -0.342893 -0.224152 -0.720316 0.0492057 -0.761885 0.0371745 -0.482288 -0.855159 0.0939635 1.04431 -0.969826 -0.378941 0.764759 -0.636101 0.623607 -0.385654 0.105163 0.969545 0.707309 0.376545 0.995351 -0.333231 -0.434659 -0.175198 0.570067 -0.677113 1.12671 -0.0426844 1.10848 0.733148 0.107727 -0.718146 -1.03524 -0.315999 0.183384 0.56169 -0.90666 0.46156 -0.649892 -0.225406 0.839982 -0.718019 -0.339268 0.787546 0.27678 0.150123 -0.437438 -0.481354 0.933052 -0.414046 0.628552 0.0824351 -0.179285 -0.0989308 0.779987 -0.660043 -0.430825 1.29916 0.180777 0.614409 -0.564273 0.146093 0.479101 -0.234949 -0.734016 -0.605923 -0.242902 -0.696902 -0.464737 -0.519063 0.0125774 -0.558943 -0.300205 0.419401 0.412821 0.539222 -0.942674 -0.235986 0.298054 -0.666873 -0.526243 0.316577 -0.427094 -0.301143 0.711148 0.949787 0.985524 0.597508 -0.244846 1.16376 0.744173 0.76045 -0.801361 -0.969639 0.27326 -0.88128 0.502346 0.796382 -0.688044 -0.762135 -0.147995 0.191167 0.785414 -0.290358 -0.792964 -0.932739 -0.963811 -0.833108 0.181941 0.531589 -0.123093 0.688179 0.597734 -0.273144 0.845302 -0.504669 -0.383924 0.00266653 -0.224257 -0.69399 -0.0290622 0.241621 0.195826 0.479144 0.967708 0.407931 0.39466 0.864159 -2.17934
-0.220903 0.203427 -0.472465 0.190395 0.889251 0.473971 -0.728903 0.451567 0.440532 -0.441657 0.85079 0.594508 0.329161 0.808681 -0.153698 0.558826 -0.602018 0.698766 -0.265049 0.697443 0.413744 -0.504764 0.299068 0.654102 0.855952 0.437962 0.733722 -0.353269 0.632301 0.349366 0.822902 0.346381 -0.447326 0.60471 -0.26086 -0.999677 -0.238997 0.2948 0.121886 0.346478 0.338395 0.157185 -0.423217 0.560579 -0.953368 -0.709266 -0.207062 -0.397091 -0.380706 0.510614 0.883139 -0.314163 0.77653 0.207299 0.720621 0.242785 0.306 -0.402773 -0.311425 -0.0793993 0.0972702 0.369573 0.630556 0.546944 -0.801838 0.305042 0.626528 -0.187225 -0.858228 -0.874289 0.684906 0.856006 0.664786 -0.93778 -0.886641 -0.810867 0.267374 0.59387 0.0437525 -0.844915 -0.645058 0.776847 -0.703242 0.796222 0.546518 -0.888037 0.135556 0.898903 0.963868 0.0638758 0.979796 -0.974008 1.03094 0.114684 -0.671709 -0.0836593 1.08961 1.18116 -0.204489 -0.176717 0.221133 0.238908 0.734688 -0.742881 -0.532795 0.739235 0.121664 -0.883729 -0.595528 0.52391 -0.796042 -0.443342 -0.766883 -0.721733 -0.283433 0.403884 -0.991677 0.307556 -0.00304844 -0.698148 0.638063 -0.0212634 0.0357542 0.376196 -0.369886 0.178988 -0.338909 0.872787 0.0437591 0.111421 -0.61273 0.331717 0.866028 0.0670076 -0.916809 -0.825949 0.526301 -0.368326 0.158553 -0.392842 0.138574 0.96082 0.0248584 -0.505026 0.946668 -0.469652 -0.0890908 -0.564824 0.851035 0.970749 0.195228 -0.274486 -0.20673 1.05203 1.0725 0.913077 0.267468 -1.11288 -0.709581 0.548829 -0.220545 0.761501 0.466576 0.39616 0.308532 -0.425153 0.835614 -0.707342 -0.481245 -0.61185 0.522798 1.01743 -0.0257368 0.0822062 0.325963 1.36061 1.1647 0.266287 0.764428 0.532419 0.423527 0.132425 -0.699458 -0.755648 1.0079 -0.262498 0.218057 0.266587 -0.433545 0.689988 -1.05149 0.14083 0.459575 -0.770078 -0.0359921 -0.493184 0.572377 -0.634803 0.519237 0.334734 0.735869 -0.526772 -0.163538 0.177756 0.689698 0.0310805 -0.201148 -0.782223 -0.182187 -0.818327 -0.157709 -0.90844 -1.39784 0.339532 -1.08793 -0.188104 -0.68342 -0.923703 0.760982 -0.797483 -0.966303 0.729419 -0.407849 -0.261258 -0.898693 -0.300405 -0.333029 -0.0245686 -0.203179 -0.0922548 1.06904 -0.0576864 1.04763 -0.041085 -0.0964786 0.65771 -1.02155 0.393433 0.525346 -1.17162 0.183549 0.80478 -0.571546 0.400474 0.967367 1.07236 -0.556328 -0.775616 0.300471 0.183167 -0.415565 0.954741 -0.129612 -0.747841 0.589825 0.510027 0.389752 -0.475535 1.09312 0.411105 0.607273 -0.311718 -0.448936 0.133424 0.67446 0.576274 0.522665 -0.654984 0.59748 0.208255 -0.501819 0.416627 0.188347 0.613516 -0.303893 -0.637827 0.347608 -0.677595 0.396847 -0.685251 0.765776 0.519059 0.932765 0.614448 0.587525 0.149675 1.11604 0.349127 0.59099 -0.057114 -0.810653 -1.09837 -1.27835 0.702161 -0.430594 0.854207 0.67959 -0.368404 0.976121 0.0543244 1.32543 0.805944 -0.628268 -0.069934 -1.22223 -0.627468 0.803334 -0.350494 -0.389946 0.574001 0.112003 -0.638046 0.98265 -0.817044 -0.178657 0.0760759 0.796241 -0.169792 -0.173603 -0.849855 -0.00937048 -0.243941 0.229152 0.215878 -0.395001 1.07632 -0.505529 0.0495956 -0.0707755 -0.202363 0.177927 -1.11336 0.0861926 -0.956425 0.87619 -0.157579 0.388171 0.0321819 0.556236 0.297754 -0.700837 -0.101284 -0.296412 0.218222 0.0272271 -0.64914 0.265914 -1.28127 -0.579046 0.390483 -0.468613 0.147084 -0.119906 0.752386 0.499881 -0.173102 0.436817 0.448469 -0.78461 -0.104105 -0.917782 0.433311 -0.264145 -0.799894 0.533186 -0.766516 0.372695 0.637077 0.356545 -0.83381 0.484895 0.875047 -0.158399 0.601033 -0.140915 -0.135468 -0.0767631 0.351292 0.0408042 0.510817 0.925917 0.591972 -0.167678 0.839544 0.739326 0.714819 0.361367 0.125618 0.1434 0.447598 0.561776 -0.0798051 0.888062 0.607474 -0.926128 0.495461 -0.767212 0.620054 0.441571 0.848245 -0.434642 -0.44478 -0.375295 -0.24009 -0.62762 0.668774 -0.68229 -0.748142 0.433874 -0.716871 -0.586813 0.0467651 0.454134 -0.0838368 -0.150826 -0.0245426 -0.0617547 -0.0730883 0.0946505 0.396316 0.291094 0.0928553 -0.304869 0.0684645 -0.826869 0.332562 -0.431257 -0.152935 -0.536937 -0.563784 0.0432135 0.630598 -0.187333 -0.0429626 0.991969 0.790985 1.0617 0.651996 0.749412 1.05296 0.0396432 -0.423828 0.94428 -0.714362 0.790529 0.319623 0.548654 -0.322063 -0.372783 -0.13498 -0.235727 0.759592 -0.499791 -0.858685 -0.140731 0.170276 0.710082 1.0049 0.907835 0.31271 -0.179838 -0.264262 -0.685257 -0.0855666 1.04511 -0.490401 0.308882 -0.399231 -0.795493 0.832093 0.396559 -0.314949 0.331348 -0.403361 -0.705394 0.550715 -0.4808 0.0581195 -0.82238 0.846653 -0.404768 1.11136 -1.00004 -1.15443 -0.769824 -0.609568 0.607598 1.15904 -0.587328 -0.496248 -0.609989 -0.788464 -0.735882 0.591509 -0.578642 -0.592383 -0.451104 0.683474 -0.443746 0.548898 0.530272 -0.152295 1.0234 -0.866013 0.0669696 0.42323 0.919115 0.32055 -0.0807872 -0.710769 -1.26244 -0.022395 0.0346786 0.536522 -0.141936 0.941726 0.0112672 -0.0677669 0.521312 0.234964 -0.0319127 0.603876 0.717481 -0.314948 0.532922 -0.492182 0.617547 1.03464 0.0955776 -0.21012 -0.731315 0.545789 -0.205973 -0.322373 0.396224 -0.328649 -0.427508 -0.514565 -1.04712 0.0849305 0.973219 -0.300438 0.661385 0.447164 0.330537 -0.222129 0.623585 0.066897 0.731343 0.00344002 -0.0940862 -0.415359 0.594841 -0.869014 1.10432 0.240269 -0.342448 -0.832549 0.225392 0.696334 0.0531681 0.898986 0.0787501 -0.27801 0.92154 -0.94728 -0.433057 -0.354189 0.911192 -0.541114 0.657681 -1.15993 0.152314 1.19024 0.977926 0.537016 0.4996 -0.554891 0.172891 0.212502 -0.281733 1.0814 -0.318337 0.736755 0.401755 0.515002 0.690155 0.21525 -0.967489 -0.259431 0.313851 0.181417 -0.189965 -0.794742 0.489483 -1.03729 -0.465506 -0.288949 -0.173779 -0.901856 0.0625287 -0.560921 -0.631071 -0.331029 0.323162 -0.631216 0.430835 -0.538414 -0.795046 0.382705 -0.223268 0.00181821 -0.892501 0.451794 0.91466 -0.073897 0.334342 -0.385377 0.938697 0.30819 0.0524163 -0.025882 0.446557 0.803 -0.287274 -0.536841 -0.65585 0.0673547 -0.297873 0.95473 0.095195 0.828986 -0.146209 -0.443097 0.772471 0.407732 1.06105 -0.0534209 -0.874714 0.549215 -0.596698 -0.742619 -0.775247 0.946197 -0.915272 -0.701003 -0.52994 0.489198 0.0121534 -0.174226 0.719525 -0.507147 -0.333138 0.114648 -0.0662125 0.776571 0.480664 -1.02568 0.0417461 -1.00847 0.672029 0.661545 0.130586 0.681521 1.07369 0.0177878 0.187467 0.928006 -0.877388 0.261324 -0.600933 0.181996 -0.190453 0.665887 0.213856 -0.931087 0.649763 -0.536347 0.0339436 -0.265884 0.545325 0.158208 0.836371 -0.545779 -0.741493 0.1223 0.395509 0.16102 0.319467 0.575084 0.774924 -0.682376 0.15599 0.0147467 0.485858 -0.762644 0.547279 -0.44958 0.817119 0.841095 -0.699301 0.545255 0.118022 0.543021 -0.14025 0.588802 0.925424 -0.147583 -0.641172 -0.711565 1.08486 0.882141 0.684708 0.555658 -0.733506 0.648104 0.176762 0.718683 0.461818 0.701822 0.529617 -0.23685 0.804193 0.865093 0.600332 -0.0602989 -0.377514 -0.568081 -0.00313044 0.0292498 0.403571 0.288313 -0.704294 -0.338639 -0.570107 -0.737766 0.0302821 -0.00724957 -0.364889 -0.00477471 0.802087 0.72005 0.312589 -0.769455 -0.234642 0.389834 0.710454 -0.677609 0.621603 0.324731 0.973624 -0.315998 0.694638 0.690172 -0.171087 -0.0872575 -0.745002 -0.532583 0.681282 0.525049 -0.880448 0.957483 -0.299174 0.268934 0.846232 -0.726594 0.923102 -0.586768 0.286142 -0.238281 0.383733 -0.00275316 -0.908629 -0.957098 0.0308299 -0.0361428 0.0936159 -0.0622042 -0.32626 -0.128427 -0.862806 -0.382684 -0.542185 0.913883 -0.185914
-0.284032 0.332011 -0.129716 0.575257 0.181853 0.0311905 0.444783 -0.267706 -0.364736 -0.257574 -0.342092 -0.453233 -0.960536 0.094104 -0.918251 0.708274 -0.484357 -0.921595 0.48049 0.502596 0.256628 0.567528 0.539578 -0.210552 0.537839 0.487589 0.713135 -0.221426 0.440639 -0.369226 0.958022 -0.529035 0.79765 0.607599 0.177255 -0.936734 0.176253 -0.518475 -0.918208 -0.380615 1.02357 0.222915 -0.718391 -0.138967 0.476456 0.322878 0.640193 -0.719404 -0.255416 -0.309958 -0.604479 0.0586518 -0.80248 0.245131 0.497212 -0.460799 -0.0946929 -0.47766 0.427436 -0.909084 0.830183 0.645817 -0.700082 -0.938945 0.846318 -0.228195 -0.11529 -0.575498 -0.322194 0.0202425 0.895529 0.959468 0.926072 -0.229539 -0.641431 0.180338 0.336241 0.214796 -0.759316 -0.880088 0.301858 0.442249 0.654626 0.552842 0.368997 0.467525 -0.165299 -0.711861 -0.235386 -0.0855594 -0.197528 -0.204719 0.18277 -0.100606 0.954573 -0.657539 0.96439 0.573165 -0.888658 -1.1075 -0.834484 -0.871377 -0.825424 0.360914 -0.69691 -0.602599 -0.386837 0.625663 -0.0147938 0.203323 0.258947 0.506521 0.464284 -0.548382 0.780343 0.50258 0.989728 0.709369 0.351475 0.155569 0.7883 -0.795357 0.691927 -0.338705 -0.4723 0.185348 0.555614 0.505431 -1.28823 -0.770447 -0.989884 -1.05507 -0.665554 -0.0104557 -0.11147 0.0910878 0.259452 -0.207241 -0.798596 0.907083 0.34602 -0.831424 0.603304 0.899414 -0.59872 -0.849787 -0.0935175 0.145017 -0.0644559 0.854312 0.214541 0.0789815 0.679701 -0.964671 0.436613 0.390632 0.135646 -0.192002 -0.723622 0.719012 0.602602 0.343838 -0.711392 0.0120346 -0.346408 1.06717 -0.696741 0.311486 -0.604962 0.514942 0.0556593 -0.966994 0.380611 0.333564 0.184568 1.0993 0.823405 -0.320335 0.0407131 -0.256918 0.700951 0.657619 0.396367 0.821371 0.0452197 0.00408118 0.088125 0.460186 0.600954 1.2242 0.390188 -0.329334 0.412759 0.120148 -0.154267 0.553644 -0.199059 0.296368 0.389971 -0.746337 -0.708316 0.984955 -0.261808 0.422906 0.932106 1.3756 1.21183 0.963347 0.425233 1.32335 0.0807752 1.37022 1.15337 1.13238 1.08871 0.602777 0.550591 0.583165 0.0677063 0.711272 -0.747027 -0.928464 -0.121288 -0.230929 0.345247 -0.1684 0.657746 -0.720688 0.856657 -0.673024 -0.703961 -0.784692 0.0673774 0.148947 -0.0323551 0.352896 0.509249 1.03332 1.35268 1.53519 1.34256 -0.326908 0.431255 0.0586483 0.824629 0.336767 -0.389038 -0.754273 0.559379 0.163511 -0.716455 -0.262621 -0.674013 0.516321 0.38178 -0.518154 -0.680214 -0.618883 0.0894194 -0.535629 0.326732 0.324162 0.44141 0.38007 1.16848 -0.547366 0.269056 0.0670108 0.420698 0.113907 -1.14305 -0.459884 -0.442408 -1.16133 -0.143835 0.381437 -0.543069 0.506191 -0.546618 -0.245052 -0.384684 0.864212 0.849461 0.616616 -0.364105 -0.265728 -0.351384 0.220219 -0.670275 -0.0430666 0.448673 -0.968774 -1.01465 -0.906561 -1.30641 -0.132212 -1.20777 -0.391638 0.306003 -0.222048 -0.836397 -0.510545 0.327198 -0.919725 0.217437 -0.114406 0.788085 0.103779 -0.76891 0.902539 -0.649474 -1.0692 0.35849 0.703143 -0.758891 0.45349 -0.334939 -0.309013 -0.670117 -1.04705 -0.770717 0.250515 -0.90907 -1.47504 -0.827724 -0.503169 -0.615208 -0.581876 -0.318301 -0.338861 -0.77254 -0.235191 -0.460624 -0.561371 -0.921839 0.0516119 -0.0128487 -0.922152 0.627324 0.0695056 0.487868 -0.804812 -0.741311 0.797621 0.235172 0.120505 0.699963 -0.47091 -0.168985 -0.941402 0.119303 -0.540587 0.563842 0.197889 0.630762 -0.796467 -0.781612 0.669935 -0.721447 0.311408 -0.601183 -0.217469 -0.54768 -0.648273 0.232366 -0.934547 -0.240271 0.0330638 0.294832 -0.0605887 -0.168323 -0.666326 -0.430674 0.360391 -0.43686 -0.248207 0.942384 0.171917 1.08448 0.175955 -0.678908 0.433667 0.808226 0.54853 -0.0817614 0.108493 0.757183 -0.364376 -0.671103 -0.930144 0.295041 -0.555834 -0.831576 0.243537 0.941939 -0.439252 0.485139 0.574649 0.860725 1.14669 0.330248 -0.299488 0.277439 0.720892 -0.00144078 0.271034 0.475713 0.207106 0.220701 0.388584 0.402782 0.0547393 -0.341583 -0.0715067 -0.806284 -0.401992 -0.263589 -0.148445 -0.374752 0.104391 -0.851744 -0.233307 0.682113 0.671533 0.703752 0.392732 -0.00630994 0.840889 1.06262 -0.0615896 -0.52877 0.876898 0.12647 0.461969 -0.131282 0.956146 0.0485948 0.174909 -0.852606 0.373075 0.318093 -0.803094 -0.929294 0.255775 0.468382 0.241319 0.294802 0.679426 -0.881917 0.758371 0.610187 -0.136212 0.226467 0.725215 0.63054 0.451548 0.160515 0.776032 0.156451 -1.08393 0.25167 0.95921 -0.186854 -0.285431 0.185913 0.0351032 -0.552325 -0.306965 0.521489 0.022893 -0.725858 -0.0828196 -1.16444 0.569028 -0.382157 0.0962055 0.00501883 0.119835 -0.950714 0.14422 0.049874 -0.839847 0.382457 0.0674613 -0.140868 0.577025 -0.00986048 0.485653 0.484426 -0.668638 0.775178 0.47754 0.519956 0.508218 0.2825 0.873866 -0.339613 0.879119 -1.10585 -0.331002 0.0666847 0.269585 0.980075 -0.467725 0.628557 -0.582657 -0.319678 -0.166257 -0.69317 -0.580564 0.346606 0.30872 0.000503786 -1.02742 0.877686 -0.611816 0.503609 -0.690438 -0.149076 -0.854708 -0.501604 0.29115 0.216247 0.83494 -0.321108 -0.0156526 0.147105 -0.528685 -0.516586 0.759578 0.723889 0.842349 0.688654 0.00312614 -0.371234 0.266857 0.225945 -0.753856 -0.138627 -0.620463 0.46039 -0.405631 -0.599828 0.0633645 0.289631 0.57937 1.17504 0.921046 -0.245313 -0.658187 -0.308918 -0.470958 0.600057 0.0533829 0.849379 -0.0485935 -0.0839044 0.227395 0.223446 -0.711203 -0.574635 0.394702 -0.0555045 0.736847 -0.631792 -0.365705 -0.178816 0.0915475 -0.748595 0.438531 -0.1369 0.224836 1.07093 -0.572508 -0.232289 0.944209 0.226744 -0.0737588 0.488496 -0.597837 1.13143 0.30234 -0.682776 0.398675 0.739307 -0.763012 -0.836977 -0.287479 -0.0385172 -0.835233 -0.0935419 -0.723275 -0.522881 -0.670576 -0.0382352 -0.198078 0.0192638 -0.276675 0.669248 0.352824 0.940853 0.718432 0.398716 0.496343 0.781192 0.933172 0.247253 0.0804413 -0.206371 0.908152 -0.526686 -0.339025 -0.170015 -0.142208 0.0456179 -0.205464 -0.911113 0.193639 -0.708525 0.847085 0.18518 0.540844 -0.438286 1.00814 0.924832 0.499217 -0.574356 0.702456 -0.995528 -0.80065 -1.08012 0.336984 0.59931 -0.0137697 -0.86266 -0.771347 -0.60017 0.0319205 0.845219 -0.301905 -0.443278 -0.775313 0.331903 -0.380295 0.633451 -0.775218 0.215531 -0.99445 0.842768 0.665702 0.448162 -0.30239 -0.36791 0.245084 -0.0412953 -1.07765 0.337119 0.709817 0.323249 0.217034 -1.06766 0.313972 0.395444 0.638377 0.947099 0.949853 0.660037 -0.310717 0.0678863 -0.45447 -0.0839568 -0.915698 0.0988371 0.94296 0.410279 -0.413124 0.770254 -0.638053 0.265507 -0.685108 1.17929 0.366255 0.431312 0.425656 -0.85586 -0.0748175 -0.0310653 0.775223 -0.16195 0.513914 -0.361167 0.988276 -0.0772902 -0.279372 -0.285717 0.205539 0.152974 0.859111 0.367203 -0.530309 -0.462501 -0.730336 -0.74039 -0.266684 -0.9129 0.813685 0.1551 0.5448 -0.274928 -0.292783 -0.819147 0.587178 0.919713 0.188348 0.136632 0.494841 -0.71907 0.352025 0.645783 0.071624 1.09345 0.475359 -0.0561719 0.322421 -0.916649 0.362669 -0.764908 -0.792197 -0.236692 0.514875 0.771045 -0.0180887 -0.658358 -0.591293 0.627827 -0.403703 -0.907282 0.411254 -0.00393391 0.880818 0.315098 -0.552503 -0.828836 0.804613 0.328614 0.374687 0.900687 -0.0640698 -0.61946 -0.206985 0.450341 -0.692416 0.218188 -0.758708 -0.629767 -0.73813 -0.987593 -0.543734 -0.981431 0.705268 0.0642195 -0.509744 0.88707 -0.278383 0.295759 0.88152 0.451724 -0.00319325 0.063451 0.196607 0.168636 0.70444 -0.70232 -0.709334 0.758034 0.0601594 0.54775 -0.801573 0.980818 0.0846893 -0.404554 0.188757 -0.545964 0.0921787 -1.29425
-0.749677 -0.271431 0.928419 0.696877 0.56177 -0.380732 -0.667351 0.527855 0.105373 -0.103036 -0.172464 0.610842 -0.697132 0.582847 -0.675854 0.6418 0.92694 0.381742 -0.390072 0.515924 0.882879 0.559496 -0.848779 0.502693 -0.0783939 -0.21584 -0.740762 -0.605117 -0.990425 0.940262 0.107532 -0.48738 -0.772212 0.96075 0.444049 -0.795653 0.396412 0.653461 -0.650772 -0.564473 0.913334 0.673809 0.439082 -0.86622 -0.394797 0.734914 0.418543 -0.163288 0.463581 0.848814 -0.315628 0.284558 -0.248823 0.0327263 -0.281787 0.134481 0.233237 0.0729113 0.80082 -0.726258 -0.653544 0.341879 0.743608 -0.646221 -0.942187 0.673947 0.304483 -0.877344 -0.154044 0.91406 0.60224 -0.6944 0.459228 -0.657829 -0.0335454 -0.863062 0.282513 -0.70802 -0.00261397 0.150625 0.624562 -0.286172 -0.047832 0.86768 0.046312 -0.267346 -0.49896 0.852832 0.20972 -0.889098 -0.402343 -0.566029 0.144386 0.657881 -0.721059 -0.675515 -0.651321 -0.390362 0.0121446 -0.109269 -0.0530369 0.215479 -0.48307 -0.237089 -0.760223 -0.470415 -0.931297 -0.0225446 -0.940144 0.0657134 -0.456926 0.924821 -0.0762931 0.351909 0.452482 -0.615796 -0.0509428 0.513968 0.803786 0.95772 -0.946107 -0.72968 -0.671856 -0.638425 -0.198376 -0.531511 0.402755 -0.208965 0.887825 0.543591 -0.199137 -0.328781 -0.485618 -0.789528 -0.845498 0.252309 0.649428 0.558252 -0.236717 -0.189235 0.1431 0.333634 0.967116 0.176671 -1.00379 0.259258 -0.735393 -0.164939 0.486622 -0.121992 0.592441 0.710566 0.753127 0.562227 0.518625 -0.448521 1.3799 -0.504014 0.0696568 0.0838162 0.225078 0.0854876 -0.842298 0.620309 -0.191408 0.491505 0.451843 -0.549133 -0.522522 0.587194 0.886825 0.259379 0.368834 -0.590004 -0.446473 0.0709575 0.503668 -0.557939 -0.834941 0.502722 1.14326 -0.0216058 -0.538526 0.243875 1.03844 1.05113 -0.216142 0.973891 0.396156 0.721117 -1.10586 0.453687 -0.507338 -0.699942 0.466465 -0.0880043 0.0646721 0.935575 -0.774289 -0.298548 -0.248694 -0.753241 -0.193443 -0.620006 0.0724157 0.0573406 0.324467 -0.867002 0.727156 0.64472 0.171188 -0.0557719 -0.0472022 -0.39735 -0.415341 -0.326326 0.365221 0.274318 0.17992 -1.11299 -0.17313 0.601716 -0.0306108 0.515729 0.330616 -0.841191 -0.661314 0.649373 -0.984439 -0.738256 -0.31722 -0.800756 0.0986182 -0.702152 0.0750071 -0.935963 0.396958 0.243497 0.919525 -0.179112 0.0541797 -0.590917 -0.583158 0.592239 0.288996 -0.297794 -0.0991726 -0.454939 0.412681 0.0998236 0.394089 0.618081 0.936418 -0.662201 -0.409444 0.720304 0.374262 0.0911851 -0.420994 -0.054349 -0.389197 0.0508818 -0.574327 -0.501033 -0.225005 -0.345698 1.02605 -0.128344 -0.64782 -0.309219 -0.393732 -0.653266 -0.148994 -0.0695045 -0.635461 0.634176 -0.11486 0.0416335 0.63435 0.804604 -0.539214 0.431734 -0.146441 0.790524 0.189975 -0.659831 -0.0846923 -0.0192676 0.873203 -0.423742 0.22072 0.567055 0.702874 0.225832 1.13609 -0.25831 -0.313163 -0.560494 -0.162728 -0.410265 -1.22404 0.131474 -0.775547 -0.00662217 -0.5866 -0.0369084 -0.680812 0.293868 0.509564 -0.449911 0.0672391 -0.554712 0.307904 0.88084 0.571161 -0.792679 -0.612185 -0.929295 -0.438075 0.522327 0.714457 0.634894 -0.0684389 -0.0982917 -0.589432 -0.589369 -0.0134221 -0.452478 0.748999 -0.870406 -0.206852 0.817469 -0.472613 0.288948 0.91386 -0.135487 0.288814 0.83853 -0.271325 0.121334 -0.82691 0.363133 0.562837 -0.137838 0.325407 0.601803 0.774766 1.07359 -0.297705 0.258738 -0.571276 -0.424867 0.795555 0.050952 -0.551692 0.713712 -0.499992 -0.852253 -0.302897 0.888504 0.649459 0.330182 0.0408626 -0.375532 -0.908297 -0.0209784 -0.0719512 -0.473267 0.350639 -0.215105 0.0469554 0.192943 0.145665 0.308477 -0.684248 -0.426452 0.856384 -0.795122 0.187953 -0.133839 0.483309 -0.285937 0.946849 -0.0424489 0.0597868 1.0218 0.776665 1.00509 -0.87058 -0.638421 -0.914367 0.848201 0.18056 0.956555 -0.379438 -0.489578 -0.520755 0.475968 -0.47884 -0.726441 -0.358115 -0.150967 0.193168 -0.0208773 0.270467 -0.579252 0.571896 0.143543 0.646139 0.549767 0.744758 0.371559 -0.0417416 0.33935 -0.106234 -0.633469 1.01695 0.984689 0.336974 -0.717753 -0.839066 0.224469 0.0826548 -0.738845 -0.256138 0.102668 0.863958 0.564975 -0.923213 0.197202 -0.0059006 0.787837 0.511494 0.351933 -0.238915 -0.0064971 0.992408 0.0462897 0.842906 -0.536099 0.949318 1.01264 -0.769341 -0.140994 0.304914 -0.0990607 -0.373136 -0.936108 0.698057 -0.223439 0.266448 -0.731925 0.127099 -0.728008 -0.954016 0.516379 0.113476 -0.0422993 0.276935 0.618691 0.654453 -0.392038 0.323823 -0.095894 0.937896 0.640154 1.02751 -0.854407 0.360584 0.794542 0.251155 -0.372912 0.00625434 0.401295 0.806164 0.0696084 -0.943487 0.578567 -0.770685 0.586366 -0.764714 0.0633455 0.381591 0.200192 -0.214625 0.615613 0.21493 -0.0243868 -0.100646 0.117603 -0.0292459 0.200165 0.134188 0.863608 0.29575 -0.516096 0.785602 -0.156674 0.183091 -0.160631 0.198665 0.183267 -0.872777 0.371498 0.904022 -0.554502 0.0568614 0.203139 0.692031 0.870858 -0.798409 -0.386507 -0.0661434 -0.567497 -0.503328 -0.68027 -0.717993 0.0234309 0.809059 0.0556498 0.397214 -0.0494797 0.0101224 0.294092 -1.10648 0.72668 0.943857 -0.603953 0.891783 -0.30293 -0.561718 -0.224792 -0.917308 -0.691444 0.0626812 0.870013 1.00806 0.934395 0.940489 1.00956 0.145883 -0.44724 -0.353866 -0.875921 -0.450064 -0.596381 0.993283 0.823567 0.0537629 0.988658 -0.511999 -0.193644 -0.53935 0.83365 -0.456114 0.613747 -0.747051 -0.288139 -0.069404 0.701894 0.832102 0.286687 0.341947 -0.00777479 -0.718087 0.0341094 -0.832324 1.22514 -0.244495 -0.197358 -0.14714 0.377162 0.507423 0.763636 1.06698 -0.0806165 -0.0950674 0.158422 0.674161 0.401574 0.959833 0.0936992 0.448005 0.474577 0.310291 0.723634 -0.84038 0.0834863 -0.353574 0.918832 0.826488 -0.405959 -0.512077 -0.74992 0.903421 -0.0512583 0.544241 1.10002 -0.136888 0.486305 -0.0155534 -0.469765 0.257802 1.10243 0.647491 0.692354 0.175029 0.657008 -0.808882 -0.985857 0.503261 0.461901 -0.186246 -0.0299189 0.926888 0.589853 -0.432977 0.432108 -0.475794 -0.645472 -0.348508 0.791312 0.0717365 0.0566372 0.683043 -0.341226 -0.660445 -0.372216 -0.340026 0.666653 0.377034 1.13911 0.0258725 0.610326 -0.0509975 0.268739 0.54417 0.749221 0.780637 0.423998 -0.030851 -0.0816802 0.374672 -0.356692 0.602117 -0.622589 0.0382575 0.74947 -0.460012 0.360622 0.131842 0.926294 0.140998 -0.971061 0.702822 -0.356617 -0.669477 0.0760741 1.19137 1.2843 0.334621 0.340287 -0.994983 0.294897 -0.456196 -0.569656 0.394851 -0.499197 -0.0234418 -0.309724 0.960193 -0.832006 -0.15478 0.879031 -0.345222 -0.193192 0.595002 -0.65861 0.127864 -0.239242 0.342417 -0.78008 0.441384 -0.56344 0.381484 0.64592 0.114897 -0.200564 -0.553789 0.428308 0.0401598 0.085144 0.733946 -0.783571 -0.18831 0.518865 0.822552 0.705795 0.00707384 0.911975 0.241683 0.917999 0.666164 0.406503 0.101306 -0.400285 -0.732189 -0.851774 0.946209 -0.323651 -0.549158 0.398991 0.293405 0.830207 0.0309723 -0.728376 -0.0218486 0.0594562 -0.62831 -0.145598 0.401193 -0.951431 -0.795833 0.293664 0.981225 0.745175 0.690766 -0.0762948 0.0690179 0.0465314 -0.150894 -0.644395 -0.418312 -0.744758 0.0800911 0.316155 0.808242 0.496055 -0.375653 -0.433951 0.000518032 -0.00734006 -0.571407 0.864916 -0.336982 -0.945877 -0.66154 -0.553824 0.954316 -0.838065 0.110771 0.640149 0.46562 0.984487 -0.8035 -0.680542 -0.267765 0.503802 0.78528 -0.425242 -0.831045 -0.342319 -0.668883 0.859802 0.250931 0.42441 0.236774 0.62131 0.675919 -0.0923715 0.86618 -0.356137 -0.70499 -0.702096 -0.472162 0.25161 -0.133642 0.350894 -1.01758 0.85839 -0.860371 -0.749692 -0.547017 0.474121 -1.51389
-0.0377961 0.09308 -0.496955 -0.0853398 0.753364 0.505837 -0.351454 0.214551 0.849246 -0.794491 0.949574 -0.161687 -0.100858 0.990065 -0.545746 0.53511 -0.416668 0.525161 0.552667 0.844412 -0.453301 0.458771 -0.238834 0.695969 -0.0428483 -0.197833 0.150222 -0.199711 0.992201 0.914064 -0.535581 0.514987 -0.293152 -0.05737 -0.474282 -0.0212488 -0.278991 -0.967231 -0.80015 -0.543331 -0.281391 -0.0590702 0.768666 -0.423149 -0.379003 0.972549 -0.257219 -0.775304 0.884109 0.00331457 0.452467 -0.980288 0.0334774 -0.454963 0.554385 -0.551138 -0.753641 0.210179 -0.0709989 0.774324 -0.763586 0.13286 -0.533426 0.288099 -0.712311 -0.429088 -0.256951 -0.384285 -0.212308 0.0037893 0.867911 0.0467005 -0.540133 -0.0200422 -0.218367 -0.67164 0.430732 -0.845352 0.559315 -0.291636 0.490634 0.564118 -0.424332 0.192266 -0.0100567 -0.636254 -0.627534 -0.535035 -0.624082 0.811773 -0.126854 -0.207239 0.472903 0.666301 0.0474098 1.03096 0.936584 -0.144258 0.764612 -0.941616 -0.909092 0.425597 -0.101698 -0.313753 -0.107018 0.430455 0.807513 -0.682419 -0.934873 -0.484046 0.0464285 -0.0567165 -0.590437 -0.728448 -0.892668 -0.2778 0.176542 -0.960444 0.567822 0.631035 0.592236 -0.781446 -0.871915 0.558504 0.168457 -0.107259 -0.684764 -0.758262 -0.421389 -0.608245 -0.766405 0.116415 -0.8192 0.595445 -0.375599 -0.86979 -0.399732 -0.448925 0.914173 -0.203436 -0.295186 0.957365 0.787663 -0.103323 -0.621961 0.677781 0.548285 -0.401623 -0.743572 0.151469 0.160386 1.03439 -0.685174 0.719622 0.828671 -0.404302 0.899684 -0.420427 -0.780744 0.218758 1.07281 0.746322 0.461534 -0.880816 -0.312798 0.506373 0.814535 0.467202 -0.407485 0.701799 -0.178436 0.791364 -0.781158 0.815814 0.36934 0.935952 -0.720793 1.28341 0.384035 0.184322 0.572538 0.753549 0.31607 0.699787 -0.853353 0.277851 0.348928 0.365069 0.441186 -0.304924 -0.0823059 0.389027 0.160552 0.235187 -0.779618 0.562659 0.200942 -0.68336 -0.229529 0.648061 0.789103 0.545301 -0.174219 0.338757 0.506071 -0.0237318 0.474778 -0.115196 0.900817 -0.178559 -0.588264 -0.642683 -0.640464 0.698408 0.458323 0.700126 -0.49053 0.441696 -0.0957278 -0.511726 -0.947388 -0.571617 0.912588 -0.981434 0.755833 0.332146 0.254999 -0.553739 -0.823502 0.587111 -0.0291998 0.407437 1.25853 0.206785 0.62065 0.643624 -0.654985 0.661466 0.0250923 -0.589661 0.807154 0.339446 0.360473 -0.217899 -0.393103 -0.648992 0.145226 -1.08923 -0.367556 0.270461 -0.794403 -0.821632 -0.193827 -0.906875 0.131258 -0.557829 -0.8511 0.126993 0.365829 0.284388 0.360237 0.975017 0.264019 -0.567566 -0.452275 -0.821807 0.170874 -0.816731 0.285958 1.23703 1.18016 0.483105 0.447903 0.13116 -0.0552176 0.675734 0.529399 -0.181214 -0.853728 0.763776 0.601932 -0.756185 -0.241559 0.908785 0.404127 1.0019 0.217925 0.133163 0.808239 -0.859946 0.267932 -0.845708 -0.936092 -0.82592 0.0372554 -0.444718 0.60295 0.238592 -0.0852296 0.218315 0.953035 0.594176 0.223566 0.306904 1.0175 -0.198658 -0.435479 -0.350154 -0.691402 0.598743 -0.375843 0.0885591 -0.45843 -0.697364 0.712076 0.527576 0.694317 -0.918036 0.159787 0.481623 -0.477467 -0.907678 0.831306 0.448701 0.696191 0.899881 0.213907 -0.561956 0.551517 0.0407616 0.110356 1.22194 -0.15689 -0.239091 -0.379967 -0.437267 -0.373159 -0.0596865 -0.616045 0.899139 0.817845 0.671958 0.768789 -0.369991 -0.0183376 -0.900425 -0.47253 -0.821212 0.885112 -0.232245 -0.371911 0.275266 -0.295947 -0.82062 -0.981804 0.301572 -0.469499 -0.176748 0.213405 0.392769 0.413373 -0.114585 0.169886 0.522343 0.739237 -0.357936 0.989402 0.448584 0.51621 0.958464 -0.112246 -0.00970012 0.630507 -0.181661 -1.07337 0.0170363 0.20773 -0.24818 -0.393546 -1.29808 -0.911149 0.536616 0.729452 0.168099 -0.0232342 0.272955 0.32051 -0.31308 0.853748 -0.161176 0.0297254 -0.133912 -0.769612 0.314972 0.637422 0.452059 -0.278039 -0.424954 0.933978 0.0978106 0.701248 -0.737878 0.410658 -0.161052 -0.21265 -0.84787 0.340428 0.0048558 0.975124 1.06615 -0.189977 0.92944 0.216252 -0.0234147 -0.743511 -0.499426 0.523571 0.982938 0.737611 0.593023 -0.505049 -0.413644 -0.369665 -0.988437 -0.0161627 -0.432661 -0.706505 0.996136 -0.810731 -0.460186 -0.553113 -0.529948 -0.658766 -0.627354 -0.361899 -0.0781005 0.24821 0.0588491 0.589039 -0.529577 0.978002 0.585607 -0.551609 -0.0533486 0.878541 -0.627169 -0.797675 0.978212 0.0152709 -0.204528 -0.666432 -0.208526 -0.242622 0.0135631 0.700725 -0.589266 -0.256769 0.236434 -0.0838996 -0.703471 0.260474 -0.211145 0.617012 0.0965033 0.280869 0.235732 0.746757 0.958835 -0.233346 -0.45999 -0.145674 0.540234 -0.104072 0.0048836 -0.135707 -0.481495 -0.793494 0.372938 0.0445704 -0.462082 -0.713218 -0.540875 0.966184 -0.343442 -1.10809 -1.03953 -0.700775 0.332678 -0.77329 0.00676989 -1.22943 -0.563969 1.11362 1.20532 0.938022 -0.0497462 -0.497884 -0.417549 0.356902 0.477313 0.674375 0.779074 0.544673 0.214224 -0.813406 0.878261 0.377091 0.376446 0.509847 0.799677 0.937891 0.058819 -0.146555 0.288352 -0.17468 -0.629831 0.67121 -0.727775 0.0180665 -0.139434 0.907843 -0.283543 -0.0686775 -0.178782 0.949369 -0.127729 0.0252986 -0.0628198 -0.763638 0.829293 -0.0862657 0.883038 0.743936 -0.937513 -0.0920208 -0.492246 -0.934871 -0.896248 0.484079 0.766315 0.971495 -0.171787 0.460318 -0.66128 -0.0662064 0.174744 0.691983 -0.29901 1.02033 0.886171 0.16496 -0.654096 0.423864 -0.167946 0.482229 -0.345885 0.711543 0.288923 -0.886012 0.101531 0.549608 -0.289285 -0.0969674 1.00137 0.355418 -0.0232407 0.722651 0.03276 0.18987 0.190397 -0.645326 -0.789594 -0.298573 0.665877 -0.649699 0.198351 0.372774 0.351553 0.79005 0.796779 0.733599 0.194585 -0.225199 -0.821989 0.164717 -0.859661 -0.393577 0.136542 0.082088 -0.766205 -0.390628 -0.878994 0.524357 -0.162222 -0.236065 1.13542 1.14307 -0.0911034 0.0383404 0.799723 -1.042 0.0626323 -0.904684 0.62719 0.822823 -0.900038 -0.503992 0.466402 -0.472303 0.652528 -0.620456 -0.0653412 0.850748 -0.518782 0.303545 0.303009 0.00876949 -0.236045 0.122477 -0.304431 -0.326514 -0.167273 0.551607 0.108108 0.139326 0.353163 -0.117305 -0.235339 0.382691 0.202769 -0.46264 0.37183 0.588562 0.609113 -0.120217 -0.195002 -0.183215 -0.819795 0.602647 0.482371 -0.104369 -0.895767 0.932427 0.0038931 0.586057 0.899592 0.653093 -0.288378 0.998447 0.578425 -0.106254 0.874858 0.186874 -0.606316 0.524003 0.428301 0.45186 -0.00529537 0.904594 -0.00912325 -0.186064 0.0916661 -0.395976 -0.182904 0.72277 -0.766599 0.633441 -0.513474 -0.593615 -0.890768 0.139896 0.662209 0.491527 -0.969589 -0.293834 -0.533908 -0.0955621 0.692332 0.057078 0.726154 -0.342299 -0.520262 0.358788 0.378484 -0.692379 -0.822973 0.0351727 0.844567 -0.257864 -0.44109 0.352458 -0.564484 0.590409 -0.806654 -0.76564 0.404911 -0.662772 -0.331252 0.331668 0.0537874 0.476805 0.965487 0.176418 -0.749251 0.950799 0.0687956 -0.0774622 -0.494959 -1.07624 -0.226397 0.240875 0.677007 0.282758 0.193133 -0.140179 0.720308 -0.0356371 0.31101 0.793121 0.0754228 -0.721448 -0.68364 -0.793706 -0.746001 -0.683219 -0.359431 -0.508418 -0.288629 0.185893 0.64145 0.224851 0.00678381 -0.617137 -0.0758447 -0.151517 0.854123 -0.0767871 0.148591 -0.239534 0.0864603 0.544437 0.436853 -0.368113 -0.839081 0.439414 0.56327 -0.740349 -0.479927 0.0547122 -0.393976 0.673265 0.356045 -0.644589 -0.757677 -0.0701557 -0.641134 0.218159 0.940216 -0.630451 0.253653 0.513555 -0.491969 -0.841758 0.798769 0.888938 -0.31261 -0.0985063 -0.720918 -0.341942 0.966192 -0.762783 -0.763132 -0.155215 0.120717 0.305296 0.501358 -0.807718 0.886129 -0.372435 -0.779786 0.672035 0.0556104 0.292362 -0.734965 2.60723
-0.587254 0.544095 -0.67818 -0.591415 0.80897 -0.546589 -0.42596 0.996888 -0.641 0.690381 0.999928 0.301076 -0.381616 0.281036 -0.75052 0.196132 -0.0764847 0.904212 -0.13131 0.7175 0.853605 0.221444 -0.73159 -0.726742 -0.817727 -0.262478 -0.814043 0.923109 0.808575 -0.756924 -0.101262 -0.801673 -0.698787 -0.938075 0.18766 0.244943 0.0753591 -0.369609 -0.603128 0.805756 0.20621 0.941823 -0.331771 -0.491022 -0.526181 0.732766 0.0208067 -0.270703 -0.416689 -0.492809 -0.555742 0.193774 0.759445 0.825341 -0.688475 -0.72978 -0.43882 -0.498516 -0.227728 -0.925955 -0.452748 -0.395492 -0.578116 0.426934 0.559844 -0.779946 -0.355388 -0.412916 -0.762725 0.0873132 0.128207 0.543858 -0.874491 0.957109 -0.291922 -0.113238 0.799716 0.0678479 -0.248807 0.751386 0.254316 -0.0698027 0.0292511 -0.572279 -0.72455 0.778941 0.295449 0.457967 0.711714 -0.170556 -0.747265 0.0447618 0.565722 -0.534635 0.469805 -0.58184 1.03665 -0.15141 -0.684172 0.350851 -0.312678 -0.435539 0.506587 1.01014 -0.890205 -0.735719 0.468612 0.367021 0.794646 0.0628081 -0.101953 -0.993597 -0.13134 0.680769 -0.452134 -0.186664 -0.981591 0.141342 -0.508333 0.603583 1.17541 0.676418 1.00953 0.933161 0.0382093 -0.40809 0.855778 0.992623 -0.166763 0.846891 -0.588929 0.67104 -0.772463 0.184582 0.665076 -0.599603 0.907218 0.386232 -0.348773 0.546823 0.406861 -0.541508 -0.33045 0.714459 -0.761017 0.104411 -0.0674632 -0.289315 0.396745 1.42889 -0.264228 0.94425 0.564631 0.0400895 -0.163331 -0.0458954 -0.537429 -0.0741561 0.0189008 0.517374 0.468664 0.595042 -0.470981 0.248981 0.213051 -0.0613613 -0.154811 -0.916638 0.928102 0.116383 0.536025 0.705704 -0.253438 0.0370906 -0.826186 0.694572 0.597498 0.548796 -0.137545 0.388631 -0.885302 -1.13925 0.723826 -0.403719 0.842025 0.858201 -0.476067 -0.593404 -0.578128 -0.260388 -0.925574 -0.271342 -0.497092 0.343362 0.659009 -0.511496 0.403012 -0.855054 0.68689 0.729338 -0.533269 0.437288 0.622377 0.68685 1.14578 -0.279386 -0.132145 -0.109149 -0.148867 -0.391647 -0.239746 0.0985537 -0.404885 0.782175 0.601707 0.677173 -0.52619 -1.13483 -1.01016 -0.855015 -0.483965 0.465345 -0.187477 -0.82904 0.503836 0.951018 0.893232 0.404185 0.674252 -0.935626 0.902387 0.524292 0.231241 0.0720643 0.709521 0.203221 -0.35205 -0.745178 -0.859418 0.271598 0.178125 -0.302612 0.270551 -0.663942 -0.643499 0.189691 0.664402 -0.786271 0.286701 -0.644063 -0.656866 -0.827387 -0.338462 0.200717 0.644088 -0.50662 -0.523927 0.750556 -0.356725 -0.0397784 -0.293329 -0.403435 0.85818 -0.714371 -1.14064 -1.28512 -1.43658 -0.659455 0.345129 0.26129 -0.719694 -0.951316 0.033941 0.12294 -0.399395 -0.910636 0.417858 -0.477957 0.506634 -0.535315 -0.864666 0.605697 0.565016 -0.740662 0.871868 -0.687439 0.777032 0.0733353 0.203093 -0.234037 -0.5048 0.715665 -0.447196 -0.453309 -0.923307 -0.638759 1.29444 0.960179 0.0330946 0.545322 0.139342 0.400216 0.541484 0.711375 -0.335152 0.0696447 -0.335436 0.83301 0.871614 -0.168666 -0.33812 0.807733 -0.985273 -0.145059 -0.340913 0.268863 0.472192 0.226942 0.505261 0.484054 0.570848 -0.475661 -0.540873 0.17761 1.08611 0.479228 -0.411557 0.678339 0.399057 -0.554403 0.0340217 -0.514693 -0.938472 0.0427972 -0.636503 -0.413859 0.484526 0.161744 -0.953502 1.00036 -0.799154 0.55975 -1.12893 -0.0612561 0.42954 -0.89006 -0.103712 0.598886 -0.890888 0.770197 0.715711 -0.378073 1.1758 0.72337 0.778741 -0.605304 1.09547 -0.264674 -0.711194 -0.267416 0.176212 -0.523792 -0.553262 0.473085 0.129183 -0.5477 -0.36379 0.675912 -0.81841 -0.86177 -0.403843 0.104983 -0.399811 -1.0733 0.31769 0.180747 -0.483806 0.214663 -0.203485 0.599745 0.9922 0.170846 0.456434 0.680731 0.785928 -0.0239509 0.421781 0.71089 0.530828 0.549678 -0.014138 -0.267706 -0.594933 -0.0799911 0.62154 0.729081 -0.0612031 -0.900143 -0.817914 -0.648057 0.429525 -0.196646 0.755769 1.55719 0.415583 0.531935 -0.327053 0.629055 -0.293632 0.84013 0.831048 0.54792 0.849086 0.444618 -0.861074 0.423563 -0.0792377 -0.0462975 -0.808947 0.892779 -0.93331 0.562935 0.332835 -0.475103 0.582104 -0.590814 -0.334204 -0.0357143 0.660846 0.885792 -0.293009 -0.112477 0.229915 -0.0473802 0.972278 0.354894 0.364992 0.615945 0.685541 1.18696 -0.795833 0.66318 -0.695124 -1.17788 -0.900284 -0.739536 0.802916 -0.688834 -0.73038 0.596276 0.707275 -0.35871 -0.263896 0.584655 0.861448 -0.894859 -0.0997029 0.357904 0.351838 1.13862 -0.180956 0.382332 -0.464084 1.11018 0.876393 0.212414 0.613593 0.122243 -0.136954 -0.828451 0.953809 0.346011 0.126002 -0.68182 -0.947528 0.514515 -0.169265 -0.364636 0.38715 -0.956831 -0.482545 -0.169914 0.558271 0.409444 0.0888337 1.02649 -0.147798 1.17568 0.622703 0.0428855 -0.0475142 -0.360822 -0.25655 0.412312 -0.242991 0.499282 -0.476343 0.656167 0.519883 -1.19211 -0.346262 0.437596 0.91126 -0.691825 0.0923865 0.607507 -0.348928 0.762801 0.718536 0.677101 0.34013 -0.60419 -0.161185 0.395213 0.788457 -0.45691 0.542061 0.886577 0.510534 -0.424368 0.661773 0.456583 -0.53977 -0.20356 0.371894 -0.102524 -1.18029 -0.939016 -0.518551 -0.771064 0.268171 -0.843579 -0.770615 -0.632469 0.164344 -0.121726 -0.265714 -0.337915 -0.377371 -0.378316 -0.703435 0.432314 -0.548302 0.825702 0.0340355 -1.01475 0.350377 -1.23712 0.260446 -0.42761 -0.159174 -0.939638 0.69114 -0.532413 -0.44816 0.132521 0.396623 -0.0318955 0.284811 0.943541 0.905822 -0.979356 0.800459 0.455384 -0.71239 -0.888063 -1.08257 -0.159042 0.208767 0.0482405 0.803353 -1.0554 0.00675714 -0.867012 -0.184864 0.0426069 -0.970514 -0.0344508 -0.407557 0.666205 -0.503921 -0.0419178 0.147652 0.367751 -0.603702 0.49138 -0.88058 0.00478393 -0.395585 0.747836 0.35944 0.241441 0.0836468 -0.745923 -0.494584 -0.167125 0.491046 -1.14131 -0.316682 0.781267 -0.491609 -0.688847 -0.252733 -0.890226 -0.097856 0.471607 -0.120498 -0.327773 -0.690641 0.597952 0.0892789 -0.330696 -0.458684 0.196511 -0.21457 0.624862 0.467141 0.628583 0.877433 0.789284 0.433954 0.821384 -0.235913 0.189941 0.0851772 0.104265 0.405351 0.43661 -0.175968 -0.210539 -0.267727 -0.416053 -1.25381 0.272133 0.193569 1.01932 0.592816 0.820828 -0.275393 -0.148527 0.579578 -0.648797 0.22 -0.428156 0.568166 -0.896876 -0.173181 -0.965603 0.410472 -1.0685 -0.187122 0.606735 -0.31242 -0.181947 0.209367 -0.000611456 0.00343587 0.0280426 -0.641969 0.437555 -0.0190065 0.13603 -0.490835 0.727639 -0.938404 0.622037 -0.112313 0.745541 -0.12569 0.862594 0.723166 0.132426 0.598366 -0.10478 -0.599181 0.686243 0.721871 -0.0653737 -0.468995 -0.306258 -0.00798063 0.330972 -0.549289 -0.0231562 -0.783015 -0.0423601 0.011482 -0.174126 0.713419 -0.0688517 -0.13997 -0.751369 0.90489 -0.373713 0.679284 -0.316806 0.29867 -0.795126 0.956438 0.196993 0.604376 -0.661855 -0.450318 -0.710025 0.562147 -0.00234982 0.392372 -0.12932 -0.227912 0.289187 -0.717396 1.09314 -0.326865 -0.77268 0.865986 0.152852 -0.357289 0.647462 1.04702 -0.20472 0.471221 -0.141672 -0.033573 -0.806811 0.116382 0.0561532 0.221725 -0.898193 0.93789 -0.395705 -0.676518 0.334902 -0.455396 0.496797 0.443843 -0.412448 -0.489193 0.117099 0.840488 0.105868 -0.301261 0.434352 -0.683485 -0.33731 -0.842355 -0.250984 0.268226 -0.706695 0.685668 -0.097716 -0.446362 -0.36026 0.835077 -0.608119 0.515469 -0.674046 -0.877399 -0.340328 0.145266 0.583033 0.13488 0.5692 -0.595362 0.957915 -0.32869 -0.15729 -0.0773677 0.774526 -0.878704 0.880267 -0.705208 -0.261446 -0.659552 -0.0216577 -0.233009 -0.316661 0.496882 -0.781994 0.671422 -0.193625 -0.674302 0.926749 0.503812 0.64463 3.0363
0.34142 0.523669 0.781375 -0.798147 0.937582 -0.978416 -0.751079 -0.720066 -0.838652 -0.222222 0.59946 0.842171 -0.675653 -0.733327 -0.610918 0.144964 0.764072 0.071601 0.87793 -0.678291 -0.363057 0.585351 0.684336 -0.930273 0.717714 -0.842531 0.210781 0.691623 0.132177 -0.307837 0.151677 0.96816 -0.397422 -0.527262 0.23751 0.800374 -0.515584 0.144663 -0.647849 -0.223656 -0.203433 0.528725 0.401194 0.646687 0.205704 -0.399665 0.914319 -0.0577761 0.290549 0.361518 -0.703261 0.39691 -0.677564 -0.399318 -0.813866 -0.814591 -0.617652 -0.21779 0.195912 -0.310726 0.676408 -0.82114 0.785514 -0.221723 -0.207547 0.127721 0.0858803 0.941526 0.558175 0.46843 -0.390282 -0.291585 0.210983 -0.214981 -0.638281 -0.740318 -0.0371834 0.609777 -0.629329 0.129702 -0.0816763 -0.0537363 -0.206361 -0.0905903 -0.13347 -0.534886 -0.514334 -0.453982 -0.728278 -0.34635 -0.466524 -1.01652 -0.523846 0.101379 0.455092 0.890688 0.350029 -0.532216 0.0619136 -0.178268 -0.982599 0.63693 0.147804 0.179751 -0.718899 0.282756 -0.922719 -0.312705 -0.331947 -0.0465331 -0.522377 0.037401 0.189295 0.524822 0.851308 0.748076 0.440834 0.34143 0.54373 -0.15567 0.878227 0.763142 0.431282 -0.375845 0.324225 -0.204484 0.0307617 -0.637518 0.524058 -0.4064 -0.230439 0.426399 0.530508 -0.675429 0.294272 0.815872 -0.302866 0.120134 -0.970065 -0.154256 -0.58016 -0.737502 0.399047 0.241186 0.167611 -0.311959 -0.41687 0.40291 -0.109972 1.31272 0.602693 -0.435446 -0.447132 -0.789593 -0.139254 -0.692947 -0.305914 -0.0712301 -0.155777 -1.03611 -0.192372 -0.48314 -0.300797 -0.530996 0.610195 0.500573 -0.861817 -0.990322 -0.928923 -0.919699 -0.160601 0.46628 0.806223 0.995019 -0.376329 0.336672 -0.26257 -0.514967 0.852395 0.71932 -0.268995 -0.742137 -0.120485 -0.401666 0.675467 0.0769406 -0.859008 -0.085604 -0.786214 -0.474223 -0.14152 0.480546 0.779895 0.115552 0.851509 0.818359 -0.937416 0.998866 -0.686993 0.454765 0.854969 -0.8716 0.100985 -0.358649 0.255931 0.0974125 0.485287 -0.329183 -0.758995 0.794355 -1.01043 -0.551975 0.936573 -0.375286 0.416966 0.475329 0.230725 0.265488 -0.550841 0.525864 0.180976 0.540088 0.904098 -0.56854 0.86687 0.171815 -0.985352 0.395818 0.46303 -0.631545 -1.17917 0.536636 0.921362 -0.127613 -0.434823 -0.0403176 0.851818 0.518493 -0.432149 -0.668641 -0.364914 -0.614046 -0.513801 0.24295 0.551386 -0.222861 -0.431565 -0.522324 0.995917 -0.339339 0.190188 -0.694266 0.939744 -0.468933 0.98488 -0.795481 -0.639926 -0.144445 0.878917 0.341103 -0.975688 0.659595 -1.19903 0.241698 0.617193 -0.813124 0.83382 -0.144656 -0.654875 -0.400262 -0.17453 -0.0611046 0.208878 0.357333 0.834148 -0.871561 0.41284 0.631831 0.557529 0.285492 -0.0299377 -0.0921648 0.300234 0.862966 0.451164 -0.221485 0.417074 -0.0235488 -0.986325 -0.615568 -0.793671 0.163771 -0.4011 -0.33286 -0.872885 -0.255187 -0.119075 0.549151 -0.173024 -0.293576 0.900099 0.199635 0.187284 0.932278 0.580336 -0.761264 0.832415 -0.195696 -0.11578 0.798739 -1.00297 0.194924 -0.441851 0.745376 0.504604 1.03364 1.00814 0.689682 -0.159674 -0.394902 -0.136182 -0.661733 1.08169 1.28186 -0.362533 -0.58741 0.486297 -0.402116 -0.675429 0.319069 -0.680431 0.427947 0.13697 0.990474 0.912311 0.201743 0.237239 -0.119994 -0.592197 -0.722037 0.372257 0.696051 0.507143 -0.68983 -0.244267 0.864188 0.562659 0.0519102 0.810217 0.952781 -0.357381 1.21681 0.715023 0.260149 0.0688964 -1.01572 0.672732 0.365285 -0.62516 0.0775232 -0.0917908 -0.498209 -0.639752 0.150116 -0.979627 0.698365 -0.533521 -0.56871 -0.166764 -0.206236 -0.0308289 -0.732205 0.688042 0.913981 0.800583 -0.520546 -0.254855 0.833857 1.4175 0.394139 0.198703 -0.388759 -0.150204 -1.17193 0.236698 0.553984 -0.149008 -0.303967 0.625505 0.705201 0.742938 0.416221 -0.265095 -0.831993 0.12296 0.56408 -0.398668 0.856234 0.42325 -0.649858 0.970655 0.599665 0.870869 -0.616295 -0.159196 0.103395 -0.323837 -0.381531 1.17579 -0.530004 -0.297026 0.402534 -0.645141 0.57045 -0.559828 0.356218 -0.171643 -0.818809 0.821135 -1.00318 0.973296 -0.273014 -0.402167 0.105109 -0.209729 -0.0312243 0.180119 0.395067 -1.19534 -0.648223 -0.707345 -0.527041 0.898519 -0.870914 -0.984443 0.35988 -0.474699 0.972037 -0.367884 0.520514 0.206432 -0.137117 -0.453688 -0.510807 -0.479574 -0.343787 -0.400044 -0.289734 0.745121 -0.885379 -0.539002 -0.92535 0.263955 -0.127367 1.0934 0.182304 0.158961 -0.0375789 -0.547072 0.386106 0.330551 0.279977 0.351734 0.6827 -0.233549 0.901849 0.744388 -0.87392 -0.833356 1.02582 1.06238 -0.167154 -0.834255 0.651042 -0.301464 -0.736101 0.0850117 0.311784 -0.448834 -0.312186 0.459879 0.880012 0.419279 -0.609404 0.305092 -0.133015 -0.545256 0.481295 -0.517523 0.0640245 0.244906 -0.944723 0.538875 0.674419 0.862569 0.335676 0.0897308 0.875476 0.691715 -0.126594 -0.833117 -0.804068 -0.0876531 0.689641 0.719647 -0.269753 0.246769 -0.128564 0.969953 1.32899 -0.126849 0.00810354 -0.746021 -0.821237 0.0115475 -0.0370445 -1.18333 0.199205 0.364031 0.0700455 -0.384458 0.728796 0.397252 0.00297461 0.822282 1.15023 0.887986 0.645705 -0.109868 -0.529968 0.941201 -0.058198 -0.00473219 0.442753 -0.440928 0.0282737 -0.27984 0.648525 1.05147 0.845924 -0.114129 0.180971 -0.353754 0.577027 -1.42988 -0.622347 -0.0527118 -0.456769 0.650217 -0.390324 0.767909 -0.575408 0.534195 0.320796 -0.744739 0.0317098 -1.05158 0.105641 -0.400089 -0.597882 -0.0510935 -0.521717 0.824805 -0.967072 -0.228901 -0.645807 -0.129102 -0.320344 0.0142913 0.415131 0.707381 0.323559 0.339244 0.606924 0.906386 -0.804922 -0.968041 0.835145 -0.815214 -0.392311 0.166742 -0.0170072 0.406525 0.475415 0.752504 -0.895947 -0.267039 -0.646288 -0.306891 -0.348423 0.0419552 0.664376 0.416266 0.522901 0.23885 -0.210047 0.514947 0.648246 -0.233704 0.752337 0.643175 -0.762889 -0.772084 -0.330128 -0.711838 -0.504345 0.513465 -0.46538 -0.108383 -0.398977 0.137142 0.16143 -0.515414 -0.570413 -0.625386 0.480667 -0.39854 -0.0611644 0.772258 -0.860697 -0.140918 -0.165113 -0.453475 0.647214 -0.32256 -0.655883 -0.942823 -0.141825 0.207283 -0.771594 -0.98315 0.577025 0.217104 0.0251781 -0.935368 -0.610566 0.585986 -0.146677 -0.859203 0.750738 -1.05098 0.633281 -0.395674 -0.319776 0.840974 0.487209 -0.473995 0.403447 0.0790637 0.612878 0.0282424 0.134056 -0.423917 0.780981 0.732733 -0.568269 0.230199 0.971869 0.505275 -0.848515 0.100348 0.816929 0.558581 0.342423 -0.272122 0.773091 -0.245222 -0.0426039 -0.0726035 0.844637 -0.526136 -0.66078 0.847304 -0.940205 -0.482342 0.454159 -0.503313 0.907069 -0.239644 1.06771 0.710009 -0.901382 0.421167 -0.311202 -0.214431 -0.100508 -0.874672 0.842645 1.13426 -0.239584 -0.710328 0.331917 0.713117 -0.573144 0.483914 0.165479 0.836931 -0.796133 0.54597 0.509093 -0.337257 -0.910901 -0.536147 0.998703 -0.224627 0.591707 -0.581198 0.279469 0.433743 0.528827 0.674056 -0.952215 0.380024 -0.058114 -0.617042 0.150647 -0.898794 0.93427 0.216862 -0.154206 -0.059167 0.925235 -0.608263 0.0284152 -0.265097 -0.862013 0.0820555 0.233002 0.265834 0.644167 -0.0467125 0.774448 0.930956 0.0207157 -0.969174 -0.174245 0.224945 0.0941901 0.606022 -0.988194 -0.513969 0.805587 -0.751684 -0.545925 0.510867 0.175703 -0.0962104 0.16511 0.969918 0.439998 0.176043 0.704575 0.846864 -0.494631 -0.975579 -0.586152 -0.690921 0.492463 0.368838 -0.627023 -0.16707 0.91201 0.669204 -0.621412 -0.164062 0.0375935 0.415518 0.304792 0.125321 -0.665664 -0.792002 -0.245145 0.425851 0.538014 0.382269 -0.419544 -0.771869 -0.311232 0.126402 -0.59109 -0.3287 0.517098 -0.0823004 -0.521042 -0.538595
-0.154483 -0.45832 -0.790451 -0.0182407 -0.683954 -0.616419 -0.826383 -0.54075 -0.615106 0.852457 0.704889 0.604163 -0.95094 -0.462744 -0.136765 0.398218 0.601873 -0.271493 -0.799484 -0.149949 -0.544573 0.411719 0.454879 0.610915 0.295105 -0.472894 0.126048 -0.652495 -0.656718 -0.120202 0.589062 -0.496801 -0.717172 0.60769 -0.730088 -0.663254 0.589264 -0.346492 -0.261959 -0.612585 -0.373566 -0.931934 -0.442634 0.173244 -0.335386 0.562461 -0.321904 0.633394 0.393307 0.376767 -0.519733 0.525601 -0.349347 -0.11287 0.552423 -0.77139 0.826301 -0.455872 0.225671 0.121503 -0.789759 0.859707 0.0826117 0.360617 0.252708 -0.630882 -0.36851 -0.0661805 0.665147 0.687268 0.581363 -0.76961 0.179632 -0.849867 -0.751572 0.842939 0.394854 0.752176 0.791299 -0.141851 -0.499229 0.448126 0.917372 0.568705 0.542605 -0.339283 -0.399354 -0.127383 0.232653 0.722245 -0.381326 -0.957749 -0.799339 -0.310598 0.693013 1.02231 0.408457 0.0639725 0.393273 -0.128811 -0.620769 -0.813499 -0.140448 0.455806 0.722572 0.797768 -0.725111 0.36103 -0.931966 0.315465 -0.617218 0.864088 -0.49964 -0.691931 0.567369 -0.791661 0.29513 0.382185 -0.924746 -0.780006 -0.852763 0.937719 0.283715 0.509081 0.519814 0.789889 -0.664268 0.785951 0.165763 -0.769118 -0.485421 -0.277125 -0.289278 0.0712972 -0.209579 0.618566 -0.841247 0.0949485 0.923827 0.148283 0.947529 0.146105 -0.109434 0.337066 -0.497996 0.421746 0.999907 0.540534 0.71511 -0.767195 0.640721 1.26728 0.07506 0.689319 0.541852 0.527639 1.01554 0.692789 0.566164 -0.11729 0.467591 0.783659 0.273407 0.15981 0.341695 -0.527988 -0.830455 0.678753 -0.244758 -0.802969 -0.66493 -0.492618 -0.55479 -0.364769 -0.407721 -0.553435 0.0331156 0.161843 -0.780456 0.333383 0.572156 -0.103146 0.240821 0.532898 -0.682463 -0.790167 0.109116 0.247194 -0.590984 -0.767433 -0.714649 0.206445 0.451353 -0.63251 -0.64716 0.622606 -0.790491 0.931972 -0.866046 0.563773 0.476655 -0.839307 0.481449 -0.772166 -0.943146 -0.838643 -1.11305 0.128271 -0.338769 -0.892678 -1.12404 -0.184955 -0.566547 -0.0627283 -1.2879 -0.35854 -0.53599 -0.961751 0.656202 -0.120446 -0.524614 0.809172 0.337196 0.291654 -0.123353 -0.446787 -0.80515 0.498265 -0.262783 0.159841 0.740941 -0.87926 0.879684 0.346996 -0.231279 -0.375359 -1.06589 -1.08509 -0.54736 -0.998837 0.392911 -0.867173 -0.472415 0.147692 0.108891 -0.850525 0.308605 0.671406 -1.01591 -0.052493 -0.318175 -0.428348 -0.042225 -0.778577 0.849729 0.0932067 0.827786 0.809347 -0.409651 -0.125234 -0.953397 -0.413103 -0.789238 -0.0937308 -0.332073 0.0740642 0.455851 -0.12398 -0.138408 -0.498191 -0.446709 0.375519 0.00914717 0.167598 -0.197502 0.521231 -0.657581 0.199841 -0.716882 0.0372349 -0.0213177 -0.302121 0.492344 -0.321399 0.588823 -0.959762 0.444905 0.431972 -0.451551 -1.35252 -0.462218 0.498672 -0.940039 -0.435284 0.319764 -0.566396 0.0274299 0.51498 0.838933 0.100168 -0.268853 -0.115844 0.678597 -0.143876 -0.81368 0.522818 -0.794287 -0.150106 -0.248011 -0.245938 -0.961557 0.111269 -0.934601 0.559493 -0.242953 -1.03589 -0.850174 -0.163661 0.260568 -0.110211 0.513635 -0.853427 -0.0696639 -0.838529 -0.711919 -0.758068 -0.536238 -0.383413 0.637008 -0.650889 0.919419 -0.0303693 -0.103486 0.0975431 -0.11433 -0.340847 -0.709346 0.636274 0.311939 -0.163859 -0.430606 -0.510125 0.691712 -0.231024 0.178521 1.06975 -0.750478 0.258452 -0.418624 -0.437303 0.0380014 0.0908541 0.137579 0.47492 0.3016 0.793382 0.296306 -0.660034 0.261861 0.84827 0.576651 0.024991 0.23271 -0.864388 0.0668647 -0.829699 0.45027 0.0729664 -0.563353 -0.298361 0.209344 -0.327953 0.32783 0.241045 -0.690619 0.353345 -0.128327 -0.514759 -1.2647 0.0913385 -0.554946 0.174951 0.100115 -0.0696503 -0.907707 -0.204782 -0.41477 0.67628 -0.150533 -0.051353 -0.49746 0.0711364 -0.299539 -0.859818 -0.734787 0.272404 0.34164 -0.547982 0.0248909 0.0623335 -0.0228552 0.465407 -0.256315 0.654869 -0.468678 0.928197 -0.727295 0.0668674 -0.328515 -0.206252 -0.165907 -0.124284 0.156047 0.0768145 0.432222 -0.268291 -0.665939 0.58598 0.595719 -0.951582 -0.32862 0.885388 0.372915 0.481232 -0.830727 0.878368 -0.014755 -0.150174 -0.850674 0.801396 0.434464 0.908297 -0.389513 -0.410915 0.552471 0.0764417 -0.130132 0.42562 -1.07708 -0.832819 0.600356 0.410171 0.280691 -0.790837 0.905295 0.41249 -0.34157 -0.803409 0.659665 -0.798704 0.925695 -0.307596 -0.0713349 -0.0882943 1.06938 0.159306 -0.37702 -0.657063 -0.366854 -0.185522 1.14808 0.833335 1.06659 0.219236 -0.364118 0.474653 0.202664 0.754048 -0.275658 -0.382638 0.943515 0.724229 0.795471 -0.175982 0.831589 0.295187 0.147347 -0.350186 -0.344723 -0.450788 -0.362639 0.251098 0.0945403 0.384549 0.0790923 0.803134 0.849926 -0.122226 -0.198355 0.587753 0.478483 0.690404 0.020908 -0.841356 -0.753859 -0.0529306 0.148281 0.955261 -0.441877 0.847053 0.140617 -0.97519 -0.608447 0.249885 0.798282 0.270049 -0.311964 1.15867 0.440837 0.475856 -0.991125 -0.123733 0.24026 -0.426164 0.0534353 -0.0634848 1.44695 0.910726 0.00860081 -0.662924 0.645655 -0.874337 -0.24498 0.271928 0.765352 0.586502 0.814451 0.985497 -0.35589 0.0663589 0.819503 0.685028 -0.919691 0.629017 0.50701 -0.103862 0.0693991 -0.797136 0.5067 0.405699 -0.0226783 1.31019 -0.466085 1.22802 -0.25159 0.785965 1.20926 -0.24411 0.0419687 0.285628 -0.626653 -1.02334 0.798345 0.537092 -0.632199 0.919394 -0.798817 0.462559 -0.396948 0.23149 -0.905198 -0.75198 0.997275 -0.572429 0.528301 0.598478 -0.0675189 0.306004 0.95838 0.602891 0.924333 -0.0138674 -0.000263862 0.163701 -0.273376 0.442373 0.650199 0.140699 -0.284516 0.48602 0.209723 0.9636 0.0202548 0.44273 -0.825657 -0.6831 0.414408 0.0846374 0.0801441 -0.850291 0.35171 0.241522 -0.395521 0.960436 -0.172854 -0.436551 -0.313272 0.277442 0.294064 -0.105832 0.654348 0.316477 0.769968 -0.85875 0.0978927 1.00151 0.239419 1.02781 0.0622928 0.611761 -0.468365 0.779488 -0.0470983 -0.541347 -0.682245 0.716868 0.16437 0.967197 0.46606 0.326086 0.87544 0.108089 -0.384154 -0.12379 -0.136396 0.319563 -0.548808 0.57465 0.862521 0.184602 0.156237 0.396674 0.707357 -0.206259 -0.481471 1.00105 0.216746 0.450965 -0.48712 -0.284467 -0.715631 -0.601842 0.565027 -0.0366982 -0.576837 -0.0918623 0.00347375 -0.347528 0.113738 0.0309063 -0.718747 -0.989984 -0.00845035 -0.348304 -0.983086 0.278318 -0.982364 -0.881264 0.483605 0.271533 0.343654 -0.0141724 1.1552 0.782489 -0.0474122 -0.650845 -0.256983 0.635027 -0.356595 -0.564774 -0.83441 0.212943 -0.380611 -0.603918 0.214591 0.0888878 0.416135 -0.41319 -0.401041 -0.992041 0.0549065 -0.237059 -1.15898 -0.793868 0.252825 -0.00780051 0.645027 0.735517 -0.322256 0.654154 -0.373508 0.435311 0.336069 -0.210691 0.551354 0.317115 -0.464728 0.645788 -0.336063 0.582977 0.263539 0.0968066 -0.20309 -0.394226 0.0988936 0.0676252 -0.256924 -1.2158 0.200956 0.460436 0.0215219 -0.812036 0.134634 -0.575791 -0.238519 -0.248799 0.0752158 0.231561 -0.297029 -0.936252 -1.06926 -0.375737 -0.471163 -0.387262 -0.882385 -0.887409 -0.123585 -0.0922587 0.698971 -0.824078 0.193604 0.764314 0.349643 0.0463376 -0.630741 0.605989 -0.585539 -0.060403 -0.99347 0.535822 0.292339 -1.2523 -0.836918 0.231248 -0.0605475 0.124276 -0.916916 0.492121 -0.779612 0.052995 -0.355893 -0.401237 -0.340215 -0.375118 -0.342294 0.77524 0.201866 -0.291001 -0.36802 0.628228 0.537476 0.531821 -0.825258 -0.0164942 -0.381216 0.8208 0.308961 -0.415172 0.197739 -1.02741 -0.821122 0.481923 -0.158404 0.506717 -0.403507 -0.616514 0.266106 0.60663 -0.769133 0.714626 0.341132 0.314192 -0.0723349 0.0390403 3.15164
-0.45022 0.25694 0.494888 0.273677 -0.62418 0.697905 -0.695524 -0.541327 -0.969288 0.834011 0.722601 0.899763 -0.0152683 -0.559879 0.0334548 -0.789452 -0.770475 0.347184 -0.784448 -0.774137 -0.332433 -0.501858 0.0324613 -0.67169 0.401744 0.716633 -0.0014593 0.817831 0.663117 -0.373391 -0.245215 -0.336594 -0.943826 -0.0715205 -0.147699 -0.728394 -0.831557 0.55965 -0.360468 0.0639576 0.963002 -0.407397 0.682978 -0.0984282 -0.504938 0.187373 -0.272158 -0.32542 -0.141463 -0.47187 0.524591 -0.708094 -0.933086 0.362964 -0.922754 -0.115577 -0.765764 -0.824182 0.256627 0.216962 -0.170765 -0.766775 0.696856 -0.736492 -0.445014 0.271291 -0.0458443 0.727455 0.416732 0.434077 0.0618907 0.830871 -0.45404 -0.553687 -0.758512 0.55506 0.0105114 0.141877 -0.760457 0.464625 0.86298 -0.040441 0.0797812 -0.750614 -0.650169 0.620648 0.440823 -0.30417 -0.792795 -0.66855 0.532934 0.0847483 -0.0548088 0.0840866 -0.707623 -0.304973 -0.723051 0.702179 1.24909 -0.0820256 -0.16516 0.275588 0.839929 0.0300199 -0.0225274 0.792685 -0.0805898 0.898965 -0.828089 0.38172 0.901956 -0.998375 0.465792 0.601018 0.0362624 0.777954 -0.7586 0.977792 -0.644326 -1.00745 -0.144356 0.693949 -0.227502 0.82152 0.26726 -0.241495 -0.481208 0.955917 -0.477088 -0.329172 0.525398 -0.508662 -0.631095 0.291285 -0.971656 0.739185 -0.336576 -0.0855808 -0.896565 -0.242131 -0.229061 -0.0050903 -0.516473 0.993593 -0.588574 0.411638 -0.120581 0.0777658 -0.808012 0.466936 -0.348706 -0.294042 -0.0161176 0.359826 1.00908 0.767103 0.909787 0.313318 0.0570329 -0.700476 -0.34268 -0.832379 0.0306585 0.116405 -0.842053 -0.822403 -0.308224 0.779336 -0.893567 0.00697777 -0.237094 -0.944346 -0.708836 -0.330829 0.171486 0.180303 0.173988 -0.558576 0.766399 -0.302947 -0.439089 1.25234 -0.246797 0.240176 0.826231 -0.21081 1.15306 0.601279 0.268122 0.881279 0.862494 0.107198 -0.641345 -0.536137 0.699241 0.611384 0.734615 -0.141772 -0.466389 -0.376509 0.181787 -0.402315 0.890074 -0.469908 0.144007 -0.332769 0.344668 0.564366 0.528021 0.963079 -0.428085 0.736154 1.26697 -0.292126 0.222932 0.785558 -0.0822966 -0.0153812 0.661609 -0.0883327 0.14212 -0.418352 -0.394798 0.626526 -0.392427 -0.771683 -0.553138 0.924161 -0.633563 -0.394273 0.180889 -0.594362 -0.100444 -0.770305 -0.56491 -0.897677 -0.895212 -0.175229 -0.802954 0.199695 0.937974 1.11566 -0.43387 -0.456836 -0.159673 0.958178 -0.483699 0.307693 -0.933811 0.246709 0.69116 -0.0636223 -0.515687 -0.441454 0.919386 -0.912301 -0.522582 -0.35325 -0.559274 -0.158663 0.63182 0.0272031 -0.47178 0.459194 -0.958628 0.0122952 0.281862 -0.332175 -0.242764 1.48345 1.0595 -0.0166186 1.04632 0.592194 -0.320927 -0.599938 0.319449 0.215534 0.827809 0.859482 -0.015651 -0.397169 0.144728 0.685874 0.415571 1.00657 -0.575388 -0.839434 -0.0160777 -0.837001 -0.428592 0.425639 -0.669803 -0.208316 0.570008 -0.70243 0.689746 0.410634 1.31696 0.544381 1.09103 -0.345519 -0.502428 0.884128 0.0201198 0.497928 0.335957 -0.585838 0.329774 0.669259 -0.458747 0.571351 -0.176357 0.345374 -1.12318 -0.903598 -0.961298 -1.12345 0.054014 0.44034 -0.301252 0.169895 -0.969191 -1.06079 -0.442065 -0.0118525 0.634725 0.324031 -0.210349 0.376447 -0.406565 0.611869 0.224888 -0.529652 0.961232 -0.634311 0.300967 0.435442 -0.766064 0.849295 0.555384 -0.562797 -0.32513 -0.382829 -1.14604 0.48832 0.0914592 0.0999759 -0.697335 -0.924103 -0.50262 -0.925617 -0.585124 -0.565933 0.544368 -0.0523935 0.202064 -0.0934957 -0.648374 -0.329752 -0.565825 -0.0728837 -0.023487 0.231825 0.578369 0.858512 -0.985068 0.851524 0.169463 0.0821959 -0.989172 -0.597842 -0.283061 -0.872235 0.446263 0.00253773 -0.478555 0.470105 0.0246849 -0.848565 0.204481 -0.93921 -0.617295 -0.119037 -0.694918 0.717295 0.713456 -0.631119 0.423079 -0.411395 0.463233 -0.413386 0.687737 0.407429 0.0805765 0.516023 -0.00433279 -0.0263876 0.0108806 0.652096 0.176465 0.320016 -0.595793 0.570117 -0.359877 0.887836 -0.875845 -0.0290054 0.460047 -0.450627 -0.792546 -0.614244 0.404575 0.138577 0.636514 0.373817 -0.634863 0.452119 0.485602 0.622409 -0.395151 -0.184664 -0.510373 -0.18803 0.861136 -0.0545856 0.882182 -0.247203 -0.394139 0.560972 0.0506397 -0.909043 -0.43151 -0.00503285 0.223476 -0.937971 0.44631 0.285949 -0.104499 -0.876434 0.0415591 -1.05099 0.567607 -0.554978 -0.859108 0.926196 0.743816 0.295606 0.144234 -0.129351 -0.127632 -0.298172 0.294323 0.545521 0.796291 -0.0437908 0.426529 -0.25062 -0.10055 -0.304112 0.0980839 -0.507842 0.259063 -1.32669 -0.68365 0.618617 -0.625272 -0.71034 0.107285 -0.381859 0.31185 0.173401 0.198558 -0.743104 -0.443835 0.203349 -0.408094 -0.273902 0.280624 -0.349966 -0.0914264 0.430787 0.0281111 0.934072 -0.435638 0.354026 0.0981222 -0.452156 -0.741482 -0.0404752 -1.07199 -0.467393 0.325127 0.338295 -0.197681 0.394308 -0.915587 0.242603 0.494468 0.813955 -0.148847 -0.382863 -0.751095 -0.348828 0.419864 -0.95535 -0.426533 -0.250385 0.495448 1.11119 0.188332 0.743121 0.939362 -0.441401 -0.175069 1.0839 -0.200151 0.913491 0.84966 0.594436 0.437767 0.951281 0.0891768 0.0316068 -0.00823816 0.532996 -0.255376 -0.967249 -0.175433 0.17868 -0.665715 -0.251803 0.0440882 0.13636 -0.457909 0.973305 0.547501 0.0118755 -0.17618 -0.444489 0.818408 0.181576 1.00678 0.268134 -0.0922255 0.353679 0.323817 -0.716614 0.0942615 0.136592 0.527266 -0.154191 -0.864779 -0.385252 -0.0316654 0.535536 -0.228245 0.714918 -0.317141 -0.431724 0.165071 0.804079 -0.31809 0.0584266 -0.233923 -0.0616367 0.7623 -0.381624 -0.372721 0.948234 0.837916 -0.837583 0.889154 0.509582 -0.134373 -1.19417 0.403327 -0.317205 -0.490957 0.872566 0.686756 0.541047 0.915749 -0.490596 -0.014147 -0.42194 -0.480233 -0.749118 -0.678344 -0.337611 0.860478 0.0353923 -0.144766 0.600423 0.317365 0.525166 0.247025 -0.605882 -0.0769661 -0.423598 0.45588 -0.832713 0.841742 0.712349 0.412786 0.094909 1.02609 0.340855 -0.409398 0.821362 0.260541 -0.913381 0.423898 -0.768231 0.428961 0.0724037 0.511699 0.202402 -0.32175 0.515306 0.827204 -0.609358 -0.303399 0.266863 0.013336 0.535789 -0.0866448 -0.326698 0.419247 0.837837 -0.381665 0.928251 0.823577 0.0375598 0.132961 -0.441782 -0.36244 -0.666563 0.72124 -0.800551 0.940528 -0.251481 -0.312145 -0.323798 0.109287 0.545607 0.164779 0.161328 0.605731 0.0459345 -0.313754 -0.213017 0.962934 -0.688039 0.491058 1.15352 -0.675394 0.69779 0.0504007 -0.711028 -1.02557 0.267991 0.226208 0.702138 0.250745 0.641857 0.248838 0.26372 0.894142 -0.92206 -0.409596 -0.684105 0.689132 0.680935 -0.0990941 0.625095 0.383502 0.555391 0.874397 0.304593 0.365067 -0.806153 0.206976 0.059776 0.142573 -0.772437 0.48877 0.656714 0.660541 -0.0345783 0.629785 -1.03414 -0.473011 0.623982 0.904734 0.12533 -0.878792 -0.546869 0.233628 -0.908908 -0.00955087 0.969113 -0.539462 -0.0107786 0.0968752 -0.461383 -0.770628 0.168794 0.0304382 -0.759264 0.601166 -0.55235 -0.696362 0.903801 -0.386932 -0.52335 0.208373 0.00496988 -0.40075 -0.514976 -0.218121 -0.170437 -0.327332 0.174288 -0.0404968 0.524653 -0.252734 -0.983856 -0.711503 -0.572258 -0.602374 0.606216 -0.840796 -0.454129 -0.0547974 -0.789787 0.665867 -0.372867 -0.805046 0.379333 0.32673 0.242986 -0.204171 0.680371 0.773459 0.876696 -0.278668 0.355215 0.389906 0.718997 -0.206647 -0.474754 0.0838967 -0.114946 0.549891 -0.364221 0.935714 0.538587 -0.730225 0.496111 0.0581943 -0.197356 -0.735452 0.333191 -0.937916 -0.973056 0.49985 0.817508 0.970597 -0.148204 0.198629 0.815354 -0.85414 -0.905822 -0.875193 -0.833354 -0.37105 -0.00405944 -0.251088 -0.558742 -0.992267 0.460355 0.685366 0.365776 -5.61882
-0.0628405 0.261335 0.991415 0.681987 0.768294 0.69316 0.00155258 -0.458528 0.254116 -0.558272 -0.370896 0.354945 -0.393133 -0.780946 -0.739482 -0.595503 0.0908004 0.779815 -0.836657 0.284783 -0.106281 -0.607009 -0.356551 0.369434 0.581067 -0.626623 -0.237109 0.275501 0.802991 -0.566056 -0.620939 0.42729 0.861093 0.964431 0.186616 -0.0169445 -0.760239 0.324602 0.00715169 0.999679 -0.463144 -0.19654 0.498356 0.622958 0.29887 -0.794914 -0.873803 -0.975551 -0.162997 0.939635 0.781528 0.215942 -0.184346 -0.260479 0.487261 -0.0868172 -0.773235 -0.789006 0.733833 -0.943101 0.0048837 0.513108 0.894938 0.071001 0.0731221 0.797952 0.548225 0.237553 0.937091 -0.0836071 0.439801 0.181309 0.147022 0.28349 -0.254661 -0.307993 -0.887022 0.307231 -0.0869298 -0.293275 -0.167197 0.815862 0.646124 -0.554674 -0.621495 -0.512514 0.485328 0.48031 -0.924881 0.554717 0.772222 0.0282193 0.333976 0.365078 -0.156887 -0.346041 -0.494237 -0.574651 -0.644215 0.237621 0.0905598 0.0812618 -0.074946 0.845169 0.508508 -0.0159301 0.836171 -0.751779 -0.404749 0.579917 0.300129 -0.259561 -0.154556 -0.497603 -0.914239 0.0807434 0.23121 -0.790081 -0.272992 -0.894527 -0.980701 0.221826 -0.0694304 -0.941377 -0.846018 0.166854 0.230645 -0.568134 -0.00703272 0.868509 -0.114894 -0.0222927 0.941591 0.577545 0.871624 -0.0570896 0.425237 0.864387 0.153526 -0.961234 -0.495261 0.804137 -0.983559 -0.792339 -0.758671 -0.947951 -0.362619 0.669115 -0.635165 0.000594566 0.112213 -1.06212 -0.0795728 -0.952923 -0.421027 -0.991047 0.389953 -0.34924 0.424776 0.97103 0.510277 0.0868858 0.333515 0.460273 -0.824755 0.952006 -0.15278 -0.368474 -0.00163633 0.384801 -0.104135 0.757216 -0.984628 -0.539357 0.300072 -0.794149 -0.502981 -0.0045524 -0.955398 0.830795 -0.104147 0.622005 0.621858 -0.829883 -1.07275 0.798316 -0.925613 -0.0524893 0.423965 1.12157 0.452613 -0.541724 -0.927779 -0.199505 -0.803351 0.0824868 0.672789 0.199968 -0.0948112 0.787476 -0.752102 -0.365873 -0.69812 -0.74125 0.159575 -0.119473 -0.460309 -0.939004 -1.07203 0.513832 0.0665729 -0.053813 -0.813657 -0.535063 -0.762799 -0.528606 -0.390378 0.496804 -0.507688 0.573039 0.356278 -0.320381 -0.824557 0.559538 -0.702717 0.347926 -0.10704 -0.903497 -0.727069 0.408004 0.457922 0.0980881 -0.113284 0.764338 0.672644 -0.893771 -1.07879 -0.877328 0.55156 0.310911 -0.478135 0.638318 0.69666 -0.641306 -0.382731 0.864373 -0.0696459 0.639425 -1.19547 -0.907119 0.448898 0.889554 -0.572458 -0.517904 0.826978 0.241881 0.311107 0.369431 -0.457216 -0.381398 -0.525676 -0.872188 -0.649002 0.285232 0.46998 -1.0463 -0.426397 -0.956828 -0.42935 0.298913 0.722278 -0.938471 0.439199 0.546895 0.0744766 0.825147 0.41109 -0.26597 -0.774323 0.291591 0.344327 0.858993 -0.362264 0.814886 0.355798 -0.39949 0.892108 -0.965046 0.555642 -0.401649 0.0849712 -0.680418 0.334255 -0.610889 -0.357532 -0.488273 -0.465151 0.669814 -0.934117 0.00530984 0.322375 -0.812271 -0.793383 -0.30543 -0.171389 0.280724 0.319778 0.765937 0.782589 -0.0790577 0.207081 0.8128 -0.599722 0.56082 -0.0993655 -0.87528 0.347022 0.644314 -0.622212 -0.7534 0.427542 0.730154 0.349354 0.423718 0.029363 -0.434541 0.831544 -0.723006 -0.59497 -0.181264 0.00667969 0.21544 0.716865 -0.628636 0.396154 0.914344 0.613748 -0.704105 -0.565662 0.691729 0.111746 -0.501716 -0.372576 -0.929407 0.319387 0.237637 0.0763959 -0.106013 0.223354 -0.468598 0.139854 -0.418545 0.601899 0.408272 0.54601 -0.136066 -1.03538 -0.0136737 0.883801 -0.906902 -0.209225 0.376312 -0.660309 0.0305048 0.84396 0.589064 0.554024 0.0655687 -0.1943 -0.502943 0.180468 -0.7588 -0.551812 -0.0166572 -0.187746 0.871478 -0.291566 -0.73564 0.542305 0.419719 -0.0126552 0.126366 0.616262 -0.448284 0.374505 0.558697 -0.278502 0.348372 -0.158071 0.0027746 0.0388761 0.24681 -0.992979 0.292703 -0.613808 0.897536 0.651822 -0.642271 0.50054 0.0663096 -0.918982 0.621934 0.212062 -0.889668 -1.11668 0.94702 0.369397 0.734505 -0.587508 -0.465303 0.697275 0.960102 0.160262 -0.546143 -0.880459 0.706328 0.265723 -0.509251 0.783267 0.636932 0.467413 -0.346614 -0.768001 0.953423 0.270169 0.62731 0.222143 -0.462864 0.255241 0.478838 0.584674 -0.00762758 -0.479001 -0.40023 -0.19776 -0.64877 -0.549037 -0.246806 -0.144223 -0.530018 -0.165933 0.680225 -0.852211 -0.383489 -0.534279 -0.685661 -0.762646 0.442392 0.109017 -0.513856 -0.62236 0.334664 -0.372696 -0.159795 0.646025 -0.203701 0.1922 -0.684798 0.0483575 -1.07688 0.885864 0.971188 -0.0785358 -0.976008 0.700769 0.433478 0.179231 0.479467 -0.180969 -0.196556 -0.341289 0.0656224 0.804247 -0.144464 0.127822 0.3673 -0.496573 0.442439 0.0402059 -0.444857 -0.466293 0.762091 -0.467531 0.0513198 -0.714139 0.685505 0.322263 0.784249 0.656765 0.0785954 -0.342305 0.362749 -0.217337 0.163852 0.67175 -0.119344 -1.01062 -0.270845 -0.354494 0.170357 -0.395863 -0.241959 0.0889047 0.589777 0.789124 -0.585339 -0.917135 -0.434286 0.740482 0.156439 0.128524 -0.3895 0.184431 0.332958 0.713059 0.0547921 -0.628937 -0.674051 -0.571367 0.335931 -0.522697 -0.45524 -0.0563548 0.786525 0.0555214 -0.187142 0.411072 0.461256 -0.916497 0.563681 -0.148739 0.216305 0.848559 -0.518803 -0.0737456 -0.696265 0.670493 0.584709 -0.612033 -0.313303 -0.277738 -0.48785 0.339438 0.329517 0.355311 1.01538 -0.28131 -0.0237736 0.431736 -0.313853 0.432982 -1.07309 0.633035 0.518496 -0.192321 0.30025 0.253527 0.478159 -0.237571 -0.742688 0.8541 0.206734 -0.0364318 -0.730686 -0.14213 -0.712102 1.057 0.56418 -1.01008 0.301712 -0.523988 0.116409 0.708023 -0.73392 -0.167306 0.459044 -0.226876 -0.870193 0.0318075 0.0267471 -0.312543 0.368062 -0.385963 0.400093 -0.487119 0.411615 -0.373624 -0.924879 0.848325 0.804553 0.928179 -0.0384953 -0.817784 -0.640905 0.574686 -0.0914049 -0.0208151 -0.385907 0.169336 0.347808 -0.990196 -0.521045 -0.456508 -0.456985 0.486492 -0.902644 -0.0966451 -0.86347 -1.02836 -0.207554 0.045563 0.0793839 0.687806 0.791697 0.754852 0.410117 0.797253 0.981803 0.0656114 0.202084 -0.043924 0.973857 -0.44771 0.451249 0.382627 -1.16647 0.41525 0.384016 0.54453 -0.592339 -0.531038 0.957952 -0.801875 -0.849433 0.270933 -0.694822 0.712931 -0.457724 0.822625 -0.985212 0.0574203 -0.973167 0.284144 0.276635 -0.775838 -0.888232 -0.44893 -0.785903 0.0919431 -0.0845153 0.771292 0.412041 -0.199284 -0.398993 0.209169 0.797155 -0.908587 -0.602178 1.01704 -0.371944 0.0278392 -0.9489 -0.738137 0.578401 -0.362765 0.519433 0.0332441 0.863614 -0.717477 0.714786 -0.606512 -0.987799 0.831794 0.268971 0.745156 -0.567813 -0.794064 -0.956919 -0.543981 0.779438 0.131339 -0.397152 -0.420904 -0.118545 -1.01013 -0.0348073 0.507256 1.06346 -0.573973 0.000862674 -0.355902 0.499048 -0.420295 -0.439322 -0.690737 0.121519 -0.726954 0.0232493 -0.710211 -0.818163 0.934983 0.721684 0.453703 -0.69504 0.826446 -0.202223 0.0871169 0.750091 -0.378891 0.174734 -0.679678 -0.22277 -0.0117488 0.662242 0.0754089 -0.797936 0.605256 0.545939 0.0795437 0.754441 -0.58148 0.57221 0.6395 -0.425938 -0.704287 -0.319405 0.0577797 0.674223 -0.915062 -0.547713 -0.261638 0.0757876 0.345668 0.100218 -0.732944 0.615182 0.0351077 -0.977918 0.0743094 0.99447 0.812804 -0.702997 -0.04797 -0.270494 -0.831763 0.342214 -0.709542 -0.964948 -0.453905 -0.0184709 0.592892 -0.973437 -0.489783 -0.491617 0.218859 0.839044 -0.843237 -0.38281 -0.595709 0.885001 0.238279 -0.223765 -0.803709 0.135592 0.43141 0.481348 -0.10543 0.66619 -0.443361 -0.912944 0.745909 -0.285557 0.3462 -0.872575 -0.872556 0.944045 0.340233 -0.467183 -0.604262 -0.164792 0.840518 -0.167901 -0.692536 -0.306097 -2.94365
0.233379 -0.743058 -0.515187 -0.519254 0.884333 0.235708 -0.351066 0.588352 0.179273 0.685781 -0.740981 -0.52034 -0.0412139 -0.618754 0.217624 -0.0762754 0.541392 -0.0408548 0.114135 -0.271546 0.407198 -0.301008 0.718163 0.463297 -0.402887 0.958509 -0.319666 -0.974237 -0.940852 -0.779127 0.108524 -0.520084 0.943062 0.76882 0.47401 0.754338 0.98787 -0.18243 -0.0867001 -0.195796 0.497811 -0.110774 -0.676977 -0.92442 -0.15691 0.730511 0.288312 0.411662 -0.0991362 -0.356865 -0.940499 -0.95191 -0.366315 -0.636769 0.352136 -0.354594 -0.209613 -0.407998 -0.10319 0.77276 0.712394 0.590241 -0.457588 -0.604083 0.242161 0.819534 0.704163 0.100223 0.614657 -0.393148 -0.520343 -0.739266 -0.894999 0.880636 -0.45045 -0.868231 -0.646875 -0.475957 -0.94403 0.677653 -0.391293 -0.442 0.0416228 -0.038301 0.300638 0.568573 -0.244209 0.182212 -0.59117 0.427458 0.148882 -0.351689 0.5315 -0.547442 0.446692 0.226911 0.72216 -0.654277 -0.466514 0.0645894 -0.0362259 0.629864 -0.0395588 0.202805 -0.353872 0.274086 0.370301 -0.449272 -0.731947 0.980163 0.610298 -0.411796 -0.926762 -0.285132 -0.22364 -0.227042 0.215213 0.899594 -0.122197 0.295382 0.458791 -0.687552 -0.741732 -0.126358 0.80314 -0.699865 -0.865419 -0.729621 -0.44993 0.144674 -0.431721 -0.294468 -0.993314 0.0660521 -0.823167 0.237707 0.703553 -0.0235179 0.551596 -0.569218 0.475987 -0.815109 0.378592 -0.399277 -0.866182 0.0617735 -0.287001 -0.232596 -0.697515 0.00508312 -0.773317 0.839278 -0.965721 -1.0519 -0.671595 -0.817844 -0.855883 0.633227 -1.03696 -0.66965 -0.576739 0.604037 0.539596 0.211972 -0.900702 -0.794845 0.968862 -0.331439 0.315166 0.923179 0.733986 -0.63298 0.296529 -0.135886 0.663197 -0.230098 -0.225121 0.0428292 -0.613212 -0.346425 0.114444 0.532443 -0.0596748 0.543571 -0.0923998 -0.0296851 -0.820822 -0.467951 -0.727671 0.376754 -0.0157498 0.0786831 -0.260865 -0.743541 0.899544 -0.375839 0.105645 0.136653 -0.136287 0.419178 0.89477 -0.344526 -0.693978 1.03445 -0.268114 -0.0911647 -0.381469 -0.955958 0.395298 -0.963734 0.218401 -0.91518 -0.625179 -0.744825 0.549116 -0.535346 -1.20266 -0.32686 -0.231428 -0.0765095 0.226872 0.852291 -0.40791 0.139637 -0.861658 -0.639263 -0.48737 -0.0476948 -0.019536 -0.622084 -0.253333 1.02022 -0.0131807 -0.580757 -0.987815 -0.113548 -1.36184 -0.324608 0.276904 -0.0774806 -1.06945 -1.00883 -0.419807 -0.598179 0.128074 -0.571059 0.414026 0.667255 -0.391755 0.217593 0.277425 0.614329 -0.0556951 -0.00697349 -0.892239 -0.156502 -0.137041 0.0610951 -0.808558 0.727038 0.973038 -1.10478 0.0806185 0.485633 -0.67639 -0.150483 -0.862192 -0.769415 -0.197297 -0.991079 -0.444948 -0.881607 -0.351201 -0.885037 0.604899 -0.392586 -0.187668 0.366793 0.489138 -0.497148 -0.686323 -0.228112 0.0852002 0.159405 0.0223267 0.657929 0.282039 0.284695 0.210853 -0.890098 0.480049 -0.685061 -0.596055 -0.42718 -0.3219 0.00846836 -0.658993 0.893654 0.360535 -0.450129 0.935167 0.995444 -0.141868 0.457325 1.02407 -0.292867 0.23102 0.934507 -0.577494 -0.251665 0.116403 0.429678 0.401675 0.84685 0.327195 0.650481 0.130474 0.513933 -0.784374 -0.643601 -0.628161 0.288528 -0.352443 -0.519635 0.753179 1.26024 0.227829 0.688264 0.623978 -0.482803 0.665763 0.541626 0.263676 0.0285391 0.00128999 -0.84051 -0.194955 0.617479 0.122333 -0.791641 -0.547489 0.603144 0.449674 0.191093 0.870016 -1.06474 0.533725 -0.147527 0.505978 0.0741217 0.665973 -0.461333 -0.366441 -0.254778 1.13602 -0.735726 0.520918 0.459514 -0.173971 -0.7181 0.767298 0.770704 0.206335 0.516966 0.987252 -0.807223 0.544756 0.169232 -0.124561 0.030257 0.539804 0.459388 0.329008 0.131308 -0.502523 -0.880615 0.623301 0.790799 -0.665162 -0.345492 -0.0633402 -0.522032 0.148893 -0.40752 -0.00253567 0.976586 0.415596 0.632974 1.01936 -0.840318 -0.856212 -0.167753 0.518672 0.714897 0.649563 -0.279214 -0.418613 -0.309191 -0.408602 0.122142 -0.311731 -0.486237 -0.414623 -0.745572 -0.0620108 -0.185874 -0.715004 0.459896 -0.260315 0.314318 0.357683 0.106113 0.701349 1.07957 0.46993 1.121 -0.287213 -0.537826 0.732133 0.54173 -0.157306 -0.632211 -0.532537 -0.151774 -0.758461 -0.88715 0.926799 -0.578427 -0.885471 -0.711966 -0.102214 0.784906 -0.791864 -1.18105 0.519326 0.688599 -0.962424 0.268771 0.0604222 -1.23485 -0.762971 -0.773061 0.88119 0.483305 0.512072 -0.264042 -0.17302 -0.317711 0.924953 0.392805 0.0489494 1.01 -0.220454 -0.209868 -0.675284 0.716003 0.397001 0.414809 0.0350861 0.381748 -0.821259 -0.162006 -0.668438 -0.0213425 -0.812223 -0.297116 -0.345829 -0.0168953 -0.973595 -0.746129 -0.400663 -0.268675 0.696518 -0.644936 0.240653 -0.61873 0.637192 0.329927 0.491095 -0.58574 -0.96275 0.852792 0.188274 -0.933714 -0.261065 0.929349 -0.293401 -1.10246 0.76955 0.56854 0.293105 -0.967562 -0.770477 0.315179 -0.077388 0.29156 -0.946058 0.424946 0.57865 -0.0249079 -0.0979745 0.302266 -0.662209 0.198119 -0.675091 0.479075 -0.96192 0.415915 0.541108 -0.492081 0.408132 0.3052 -0.239379 -0.437459 -0.340957 -0.268798 -0.214236 -0.412356 0.726654 0.349468 -1.05072 0.511869 -0.958124 -0.599095 -0.696735 0.0340834 0.111158 0.579125 -0.890476 0.661036 -0.793192 0.453351 0.395728 -0.801595 -0.101911 0.363476 0.833158 0.765117 0.842007 -0.0900481 -0.511406 0.408382 -0.345006 0.74297 0.760536 0.323768 0.0713121 -0.584558 -0.374186 -0.0728912 0.602374 -0.0761317 0.832918 0.674069 0.422016 0.985311 -0.490726 0.186062 0.636697 -0.846156 -0.158948 0.899101 0.39603 0.9836 -0.0771936 -0.296221 0.869438 0.648956 -0.762717 -0.0250647 -0.763513 0.314711 -0.538851 -0.885598 -0.749112 0.613002 -0.526508 -0.704651 -0.541462 -0.451559 0.50683 0.249058 -0.538321 0.714302 -0.587819 -0.467041 -0.605619 -0.821359 -0.202626 0.619146 0.917079 -0.285276 -0.292109 0.407401 -0.454181 -0.623969 -0.755238 -0.413238 -0.170596 -0.188126 -0.427752 0.470033 0.209891 0.634784 -0.778724 0.711106 -0.561465 -0.784755 -0.280202 0.673784 -0.505895 0.201923 0.595379 0.591881 0.582537 0.144634 0.157271 -0.942706 -0.422905 0.604498 -0.368161 -0.872341 0.144965 -0.316119 0.620256 0.239005 -0.176817 -0.47845 -0.0925895 0.299955 0.51201 0.766062 0.293854 -0.0227044 0.21744 1.06248 -0.852907 0.80787 -0.69242 0.557474 -0.658188 0.450506 0.246227 -0.959947 -0.783774 0.803226 -0.942026 0.145041 -0.275181 -0.728616 0.479738 0.346496 0.384839 -0.433797 0.531888 0.158047 0.140376 -1.11069 0.0947186 0.902235 0.0505784 -0.710396 -0.4798 0.784585 0.127341 -0.369422 0.242041 -0.448731 -0.780666 -0.212309 0.130313 0.545119 -0.804503 -0.600476 0.0942962 -0.105587 -0.6727 0.0152767 -0.712022 0.817045 -0.839726 -0.0089365 0.6381 0.0263051 -0.0824132 0.495961 -0.638953 -0.351706 -0.81403 -0.71125 0.177008 0.687341 -0.688709 0.530348 0.530363 -0.372978 -0.0179022 0.89595 0.452902 0.667372 -0.208547 -0.994386 0.404634 -0.788332 0.388627 -0.0486588 0.129866 0.825363 0.674456 -0.706558 0.0676917 0.241593 0.00677238 0.567333 -0.476521 0.740136 0.828616 0.344079 0.0962317 -0.243884 -0.189485 -0.233604 0.0940571 0.521318 -0.709854 0.741668 -0.46975 0.923739 -0.386636 0.518482 0.0303175 0.117586 0.39108 0.821373 -0.421078 0.891414 -0.728046 -0.056246 0.147423 0.946296 0.739279 0.266355 -0.229208 -0.233974 -0.0402156 0.775841 -0.395319 -0.0982522 0.673926 -0.240949 -0.738457 0.638118 -0.65789 0.950139 0.999913 0.325835 0.364432 -0.352512 0.0961049 0.671317 0.590221 0.827967 0.994086 -0.701222 -0.620871 -0.381496 0.618107 0.240295 -0.31087 -0.320681 0.473807 0.229022 0.419581 0.653226 0.998934 -0.721379 -0.769156 0.25937 -0.989286 0.327267 0.495569 0.747603 0.137554 0.425815 2.29141
